[{"b": [-0.001792903839792053, 0.0006337321120508719, 0.00126124007270315, -0.0006019742805019085, -0.002016985102087388, -0.0005114635921266287, -0.001008252247901934, -0.0003188425553012004, 0.0007103280002552378, -0.0002212273466203512, 0.000915434422383164, 0.0015571799642107476, -0.00040287354387784705, -0.0008678619274890365, 0.00040510592432806407], "name": "hidden0", "activation": "tanh", "bias": true, "W": [[0.10427605833318304, 0.09025347383840401, 0.052592253711408354, -0.019671657934930253, -0.09714513593332781, 0.06377013539472531, -0.020799524423006005, -0.08101009204254184, -0.10806631985525919, -0.09908691191290123, 0.0470614991827564, -0.09746651139191902, 0.07365312024755213, 0.0543677397228301, -0.07397119517274661], [-0.007500630850832496, 0.007582057069933978, 0.13128518023592237, -0.13398790447333964, 0.03435689944787945, -0.004046673412141932, -0.09007811394242933, 0.1239169070458346, -0.07736846525620522, -0.12335824558568012, -0.06762519150010016, -0.12783124754065486, 0.07997148249309718, 0.09848578048653234, -0.09247815773645396], [-0.13493120960183716, -0.08201905281678018, 0.10450364806905305, 0.024290276852518528, 0.0037472710659362807, -0.06831951976648344, 0.04360482493011952, -0.0005027010743482996, -0.10237316535391344, -0.10645786774459946, 0.03167142233827014, 0.12552373094506367, 0.02918162850987685, -0.018540162257605172, -0.05072846696611241], [-0.046007424526573054, -0.007555614365777424, -0.11822249410722269, 0.077892590850387, -0.10083166295476537, 0.11015298445157934, -0.02122667762872016, 0.02073722845760756, 0.07801873178542895, 0.00816032214647816, -0.02039208080069428, -0.12920551331286675, 0.12289337013612098, -0.09745738489508564, -0.0007612175073124228], [-0.04814687508275192, 0.014087274478967793, 0.11588397623260285, -0.06052019741678344, -0.03798414296082063, -0.056208318298312174, -0.11970874989749489, 0.06637026227625625, -0.04242392070103028, -0.13079062457368287, -0.10044310873506533, 0.12075390072692696, -0.06225816576506457, -0.03561186008573121, -0.05238267019668706], [-0.06160191641732171, 0.055830473037884076, -0.10645675760084175, 0.11487040180000715, -0.06581476248412517, 0.10249534601787055, 0.05852195013684838, 0.09737358055220005, -0.111818919114911, 0.08640203131707014, -0.06004863773530793, 0.07943769978492465, -0.0984307027365981, -0.06400259392330859, -0.07351324791106176], [-0.10709820071886843, 0.0972908601625373, 0.09751775201383994, -0.13503348038632662, 0.10225213018735044, 0.10099706929578789, 0.0404506847220992, -0.015421589748017259, -0.017042366784409277, -0.12128425114909011, 0.11266296374095028, -0.03492420669956363, -0.09782804578186904, 0.06928873244763104, -0.05780348387365848], [0.025435659142979933, -0.013020324447881232, -0.051680124796258664, -0.09795398008069178, 0.023817778437974058, -0.009941074655206467, 0.04193495189692359, 0.033586971121188, 0.13186051663559048, -0.016096538883694556, 0.053772677964826765, -0.12606578977427682, -0.08060772000680348, 0.04075014938393487, -0.11961624722726855], [0.07209776970631762, -0.0416187050477404, 0.08750043472868219, -0.03898710320474996, 0.09705835685419531, 0.08086479976577479, 0.04801831648928487, -0.08110133307034531, -0.062237772277868045, -0.015698848731377724, -0.007347327062939224, -0.12571559854773523, -0.012513007668022394, -0.040515032166232326, -0.0007889107819567531], [0.10961483685784928, 0.08945174871674935, 0.08233688740960321, 0.10475233838127979, -0.06380904543552339, -0.016668221948469036, 0.09484798966902266, -0.024907143585470234, 0.011821312212387108, -0.10743541460369234, 0.0644658821279255, -0.02226341387113083, 0.060152121198928044, -0.023150578202409525, 0.046766505197725766], [0.02678136336940315, -0.09148291667377628, 0.026356053246879202, 0.0371143041187737, -0.09730226160453492, 0.015279751363934446, -0.12091109618865764, 0.016205839686022905, 0.029569010185227784, -0.09246633595888773, -0.1311113148864786, -0.1198587702494362, -0.0686447560851151, 0.056585638366234925, -0.1025915698392197], [0.05351148304129735, -0.12593224028456376, 0.0665276532841432, -0.048129857078662894, 0.06353613518141069, 0.0007954575971729216, 0.05094336431772575, 0.014592428116326606, -0.11413153752730386, -0.03820838093631346, -0.027407543135543902, -0.09537667582302156, -0.07277052704640487, 0.046129996111435034, -0.04118868371597341], [-0.009988354271204702, -0.08245159547253952, -0.034378905893845624, 0.11635054957304344, 0.08995364816220841, -0.07693322327137381, 0.063440344519781, 0.0384356147656105, -0.10441805031555146, 0.13134909353340093, 0.12045868796900058, -0.10335695095030335, 0.07071762344089425, 0.009064586175022621, -0.04218908937249434], [-0.048307029326135606, 0.12948417084527256, -0.0859164104964866, 0.009556306270574216, 0.05237925904499752, -0.08966725890352012, 0.05806208116157849, -0.0037717314662225887, -0.12729515971729286, -0.1351109944840568, 0.019287775388300316, -0.11810475165124179, 0.040092205742228576, 0.12197069216072817, 0.045635905665975585], [0.13349717786935253, 0.059697303077882014, 0.06397017791053508, 0.010250359931459119, 0.09437691808232027, 0.011809978968546159, -0.02351418492655108, 0.0950426867531958, 0.12199329198450101, 0.07598456150455671, -0.10605149685967416, 0.057855474110571625, -0.04755883628077409, 0.024500353585062, -0.04455648354874278], [0.02906320959275166, -0.07522095515709284, 0.11771395785914937, 0.12677965305099312, -0.029964610655183743, -0.009231869630696887, 0.09137850830257702, -0.056549896395342525, -0.12520007584720613, -0.11513108921984248, -0.05242904994075551, -0.04649393261556915, -0.09137522857577364, -0.054610987094590335, -0.0810257712349122], [-0.02614430594174655, -0.011000754567741938, -0.03630044577124249, -0.04980390176778972, -0.07028768156003319, -0.06832294424527853, 0.09078640681815042, -0.01750354021860115, -0.01735596134485433, -0.05111059525366847, -0.0036067394306608658, 0.06723778500934968, -0.12719675625373664, 0.1005278434529687, -0.13203115125970336], [0.0015731891791501695, -0.12180951106020073, -0.04333711204819202, -0.050969847765597126, 0.12013883567555919, 0.12396699003995279, -0.11116074825754718, -0.052590415429055445, -0.04675758609760519, 0.022355904790207215, 0.004542762242124604, 0.1005667819101522, 0.10992527181921505, 0.0823728324289181, 0.008061585956837924], [0.1024055651635184, -0.07596176537424608, 0.03677328250702527, -0.07024846426569675, -0.03583388473893209, -0.1258428925684382, 0.1313339167311743, 0.08024785240999013, 0.03606080534677236, -0.10234887031362175, 0.11986186266978036, 0.10884161542599524, 0.09359572400636423, 0.1330693495041221, -0.0577248136269706], [-0.03784602242560778, 0.09291736764076444, 0.030207472064846252, 0.13473408753978258, -0.053089496833697666, 0.08037651133097892, -0.04691822780215166, 0.08736930911189639, -0.11225874465062252, 0.09705658720326787, 0.07962585294619548, 0.026400696763844683, -0.08253301946007677, 0.1330703054330228, -0.0971476090766144], [-0.03554236545759494, -0.013935515679663071, -0.069311516112162, -0.059556901170650475, -0.09455272683115681, 0.06640024038815501, -0.13216168744999268, -0.11515110743304442, -0.03630521985558417, 0.04156292623384969, 0.05576658513045718, -0.04814253863417289, -0.030192171750460017, 0.12687855766949127, 0.13220748130701074], [-0.015563129752079422, -0.05062042733687924, 0.0009537155569601385, 0.03130356570894585, -0.07954711576619891, 0.12793159503863352, 0.13349753630196406, 0.0042055879886933045, -0.08336524579351476, -0.03449521548537847, -0.11717556069495072, -0.003852174121760893, -0.014867561551206082, 0.10376748704144464, -0.12789936534910734], [0.07090377918963561, 0.08044076873541944, -0.03460424684893336, -0.10219900999308364, -0.05436581409721865, 0.010833751087550886, 0.01171295413665302, 0.06576660168401507, -0.11094508039345558, 0.13118910846537388, 0.011193676213196474, 0.0391772563788334, -7.73275348978919e-05, 0.12701856591293811, 0.129873171751517], [-0.053405670876145464, -0.13498593559166772, 0.11843996830978817, -0.08484080804208954, 0.010312588453598198, 0.07399065607979927, -0.02135209525195446, -0.06922785171702672, -0.013205021049076032, 0.018606712709574286, 0.04346657994627376, -0.07275725504323369, 0.0060046753615337345, -0.13018365268678117, 0.09300726537839935], [0.08082432009186702, 0.014384612516549461, 0.12699157204387537, -0.019093908355081235, 0.053554579995508084, 0.0065420549377508685, 0.11401200540346942, -0.0010930030286513126, 0.11237310078897636, -0.10372341403153465, -0.06042112173563502, 0.07010227850351969, -0.11619341246449373, 0.13291948976187792, 0.07343259185582388], [-0.07914041351040624, -0.08199592709534193, 0.08734673960561612, -0.08558317856475117, -0.11806051339454769, 0.13257484415356877, -0.046673137226895034, -0.012104745047901821, -0.12491407899663609, 0.041622136494439355, 0.043493008921671406, -0.11789540970180135, -0.06744646475266099, 0.10607049875300656, 0.1277819726316254], [0.012300424225421963, -0.10193626974968559, -0.08190816802983411, 0.10408326072518459, 0.0532035633892079, -0.12965580609723065, -0.039858900675600245, -0.11004009667460737, -0.09248103214621148, 0.022357443783268705, -0.05478576128713662, 0.07839610357902943, 0.11602740945750614, 0.08017137530534932, 0.06093232589106906], [0.00605324625658285, -0.10749240139387733, -0.029166298286685877, 0.1047047416100427, 0.011195255589673547, 0.06597891080808857, 0.09523248615901433, -0.02511533582752057, -0.023365526028367292, -0.04277930550027763, -0.08964289623214261, 0.021680902536895308, -0.055127138046724325, 0.011379154927415702, 0.0005364101825928447], [-0.09051343873909065, 0.08487172144399008, 0.03551962817311019, 0.11423009514732282, 0.12452418554773834, 0.0852899085173234, 0.11952157681435296, -0.0021128392594834955, -0.039226886516756, 0.072356987623834, -0.024668097888467785, -0.02330507484055591, 0.03811094016116828, -0.07882567055245956, -0.08558494254190942], [-0.01749748698408242, -0.07579747010051671, 0.015391105932492016, -0.09247713021876365, 0.1086529473976286, 0.012021360571038114, 0.0032116519943186372, -0.07492059254339617, 0.12342241890502423, 0.008862458277534069, -0.12468606879301652, 0.13582749440748013, 0.11787522002623826, -0.02231363340087604, -0.0407340411374352], [-0.11990494272033117, 0.029762129465605774, 0.1253200726630688, -0.06430602522809119, 0.02089415339085468, -0.11976463891985367, 0.0719625609209805, 0.050150369958661345, 0.07298136052017706, 0.13418469003318348, 0.07055794127139547, -0.10563592545149524, -0.1366841042712397, -0.01572277556483627, 0.01849575000962561], [-0.08813070889089118, -0.022862130708078673, -0.07902747098909454, -0.0885321072220203, -0.023854336435232368, 0.10626351582740329, -0.005562781564440844, -0.02059433832575107, 0.09609110367614213, -0.0038996355998656973, -0.03390514463401963, -0.07246751442491878, -0.09633784530040297, -0.001431301221160114, 0.11291729624390931], [-0.005725193628835418, 0.1144861112352438, 0.09579322699976164, -0.04616578949744447, -0.08381893999097233, 0.11642621637347714, -0.09118738343945663, 0.05066602416439542, 0.021370615722895198, 0.06862288593875626, -0.011022226261927531, 0.12916700408669554, -0.051705711886527506, 0.11074025691727155, 0.015505902061698523], [-0.015084585677365314, 0.06434901944259733, 0.09730523149732381, -0.0819191649438451, 0.06936540166412736, 0.011020600588975915, 0.09406406870465545, 0.08574076306606143, -0.09300667160906748, 0.11290243440145728, -0.007819430430964364, 0.0912248222087805, 0.005146446323234771, -0.08873386781917111, 0.12222501365823277], [0.07933617534060405, -0.03647451637920873, 0.0772288204846798, 0.01204563150871979, -0.056610569740261935, 0.11021517075560003, -0.12021698926569148, 0.09799424365907841, -0.12478078457276826, -0.042257959497714895, 0.12391223145085764, -0.06042981737744635, 0.016296011764581925, 0.1079058800488098, 0.040890282449021514], [-0.10255425287698305, -0.04641400072464899, -0.03614050410412689, 0.10793754925451157, -0.11819694129939537, 0.008296280869039274, -0.06589355083934305, -0.12782456978763385, 0.1223344046301654, 0.020960195043187885, 0.048363258896342604, -0.11249364387265028, -0.08368791752437205, -0.002962281874726025, -0.06435319663849366], [0.053986966199555814, 0.10961866231760878, -0.005842099070500567, -0.0517526593217021, -0.06985894126705355, -0.018604012918898807, -0.06807566845080572, 0.029129368343087936, 0.05798821115278907, -0.09548563953907263, -0.019960361799603005, -0.11165132034292201, -0.061389594443219744, -0.10340956244840277, 0.05931213057500617], [0.019754048030483362, 0.08560629484145141, -0.12958239788152537, 0.04490978627542397, 0.13494054174007367, 0.08187650768483265, 0.03644907299548117, -0.016424300073378043, -0.1168446495005794, 0.10265681644944005, -0.06208816919817425, 0.07063201408269443, -0.028110065931314474, -0.09974683821018465, 0.0541998678662621], [0.10608971661480066, -0.031526110535629134, 0.08620517356884658, 0.11434795984348614, -0.05919054865768507, -0.019921565076233064, 0.10205663505088286, 0.06440634580898863, -0.09845252964058199, 0.13629660100335864, 0.09331423913938583, -0.07530816563034014, -0.09175888522257619, 0.013445008218397336, -0.10283526199641715], [-0.04639031867572126, 0.0032862965038787106, -0.055727139108022655, -0.044749693560642095, 0.06731990452966674, -0.08079379927770138, 0.05520025739499343, -0.05363808125606223, -0.09203903304203169, -0.10663422089857766, 0.04147991918408403, -0.13647306183633443, -0.12161830442341959, -0.036809308660973566, -0.13327949923134302], [0.028373357252586856, 0.12113907347087041, -0.07601180736173856, 0.07877103741187735, 0.00433066864028589, 0.029695584265504754, -0.11869100097087751, 0.10294999836065238, -0.03870001525977075, 0.06329643320086575, -0.04821663526424394, -0.07644932610031918, 0.12028064838960509, -0.10699773770785242, -0.03298956697896435], [-0.13065592239642, 0.03167553058994835, 0.12288781514868799, 0.13237096975324977, 0.13245643226233286, -0.0349414664866064, -0.026892391519622624, 0.08194652478086126, -0.04535660771669675, -0.09658526691710553, 0.07734827360175608, 0.012975074567764311, 0.020356249821246425, -0.014028620111263587, -0.04888166011738866], [0.10804278480534876, 0.015212570743145498, -0.05605776018334717, -0.08933399707941833, -0.07056551953315417, -0.06272458549863956, -0.10087560791781741, 0.013266583150679523, -0.09668226231395809, -0.1315562560477794, -0.022081172334599136, 0.036874550440333304, -0.05150980959853883, 0.04736726193723512, -0.10799319076585558], [0.028972359723431595, 0.04585853295833098, 0.005309472207629201, 0.06695632465078882, 0.12444649480438849, 0.1208475143109893, -0.09756603207247203, 0.1305011442427956, -0.04611008767141085, 0.024669659308452302, -0.019880823587626467, -0.012267522900016647, -0.004434040622582958, -0.08393391446703291, -0.04142259281739483], [0.058092242792349896, -0.015618716762075935, 0.10526013739886977, -0.0984430824494937, -0.06470408104226924, -0.027012575549479514, -0.12803120257535813, -0.009457872645762588, 0.0455744053024017, -0.048362864263820055, 0.02236492178394736, -0.009544384332328987, 0.05738779944839045, 0.054132145495798784, -0.041794953410818445], [-0.006248955091235936, 0.04750037248540856, -0.11685010081601355, 0.11810027954855604, -0.02828614467128568, 0.12643164669065873, 0.12875476488704843, -0.11529284183849105, 0.08236191219131325, -0.10521547822756919, -0.04349056342252214, -0.11205194290995624, 0.12650508009022052, 0.05076220217384372, 0.11351937857577019], [-0.09127318769193526, 0.05224391936121339, -0.12057041695219939, -0.05842089845818696, -0.006480230143969035, 0.05143052820583899, 0.04980803439895848, 0.1030268471576462, -0.11183894741892506, -0.1158119415247754, -0.05512085973494346, 0.09399248345036967, -0.059413312274712596, 0.10878431962298846, -0.1124395568667099], [0.11015897373604144, -0.11839496490942328, 0.06846186319262063, -0.07009661503824337, 0.1233139503717576, 0.08969510542598241, -0.11835452665437231, 0.07678020941489566, 0.07119805085831249, -0.11044878666741009, 0.1295232563927556, 0.13360216307770686, 0.1004628064658446, -0.13128992953879112, -0.10522239874578845], [0.010172643083064675, -0.09329581230254885, -0.01056588454512819, 0.12368347631440554, 0.11299100976278806, 0.06174264515721081, -0.0980964950723582, -0.054357807634330624, -0.10281885182852973, 0.03842031029846052, 0.04390105458495297, -0.003322517503557859, -0.02900220643606495, -0.09777535653284092, 0.060324228872833285], [0.11202935468665856, -0.0014832228335622255, 0.11647772485912164, 0.013678437778379487, 0.019975393286146642, 0.0018148239301086222, -0.044717053580318536, 0.02486501830603155, -0.08494829646218713, -0.09506626415285513, -0.044374215653745094, 0.08742235350197117, 0.12125168152891239, -0.12248915688061872, -0.018473746163924068], [-0.12497857779319341, -0.04656317527321489, -0.008374391128863623, -0.025988244362028207, -0.12776744784674102, -0.10635432436290108, -0.1047739872525788, 0.07314840610942155, 0.013551746656098929, 0.0535868358914057, -0.08813988756632107, -0.06839481897051025, -0.0076075774917643835, 0.013047929825309501, -0.13131995774035238], [0.1029578930655535, 0.011557025583347508, 0.03474868356231611, 0.11978722977802977, 0.012421583780238221, -0.009440747313892661, -0.07008123491786704, 0.07249685863940125, -0.11126269358845708, 0.019882512715762413, 0.05164962397269493, 0.08994985388354518, 0.10807860434253044, -0.08074445926669602, -0.04674565303261376], [0.016947627800685233, -0.06756725048631748, -0.12076198275597108, -0.0998073423168771, 0.027282458786824254, -0.004202992138990197, 0.10591822460654732, -0.03254248535731295, 0.0927659967187617, -0.10999747613198815, 0.007384642283969178, -0.0006286559727707863, -0.04434303281408268, 0.13708775667342002, 0.024768684471453167], [0.02160580814259011, -0.09765775537839946, 0.12687449422642008, 0.10213765188115398, -0.017152857862465717, -0.018852561219057304, 0.07305679253509595, -0.07214859835216635, -0.0647986529974022, -0.09555496491353455, -0.0952409660599774, -0.010196180206573757, -0.08835122978182958, -0.06699696221617435, -0.031126694943695937], [-0.04901845543401889, 0.016466400511053414, 0.1258115271855277, -0.023987202520986683, 0.1086289976678732, 0.03178100748834861, 0.1092135992795405, -0.08237430266449064, 0.06543413978216264, -0.002254094212498975, 0.03072574295366204, 0.006622480935864122, 0.10983946571378556, -0.10631621402539736, 0.09589976263661834], [-0.13508245088944876, -0.07998165365695331, -0.09720818026475833, -0.019071361909018314, -0.07322002117991057, 0.07914426579262868, 0.1125212549252548, -0.11282730683552651, 0.11383533257184494, -0.04819751326935326, 0.05564632013254284, 0.036482178662756104, 0.004226556537574838, 0.06176025618272943, 0.09723769501001078], [0.05672267747747897, 0.011342634801789958, -0.12430085282506262, -0.10466155839100404, -0.12044671140252025, 0.12023523907417447, -0.003928412038126938, -0.12615248797414555, 0.009726586411474891, 0.06469330029329834, -0.06763964042033524, -0.0922011905641816, -0.03773388355291181, -0.0054722770900965945, -0.03798876973948205], [0.04897533869154175, 0.030743546061935384, -0.13073506153766828, 0.003627504778602575, -0.08253732970747751, 0.06988428367217284, -0.04652740585663988, -0.0488777827906163, -0.04091269139362892, -0.04994104179904861, 0.09296938092554949, -0.09549345548179096, -0.053332113409465504, 0.0450856349887615, -0.03828337063505356], [0.07890244613976896, -0.0676459186536207, 0.010890390141213069, 0.016153836244145736, 0.0485880866791093, 0.11041404577704114, 0.016723333122075273, -0.07530003088506404, 0.007089359831364078, -0.13491958010671168, 0.04271493816840918, -0.026777705877649813, -0.1087200652764373, -0.005694441396437183, -0.027795448790653557], [0.04855299565389001, 0.0978641057064667, -0.028687061396540287, 0.12910031288767668, -0.12078933565677134, -0.08525097001610904, 0.11242505276490963, -0.0919154816634479, 0.1355818739384049, -0.10991127412681254, 0.03992635473483433, 0.0885350387388657, -0.04253535471609067, -0.04569545616789421, -0.13300712916835233], [0.009447954560382388, -0.02750807777150839, 0.12472780083517923, -0.07838554212162846, 0.09883333574049089, 0.07021032160014987, 0.06506392897196686, -0.07127443012038982, -0.12940561781535445, -0.007821083039431992, 0.06626498553511537, -0.08463667066811367, -0.13469737237160753, 0.11594681630750672, -0.024593603219560015], [-0.10237354045408877, 0.07302516276326088, -0.06356964000476414, 0.05563662695248295, 0.04192232265454718, -0.0010125390457912942, 0.023650490120860873, -0.022870528865725367, -0.0777645912637247, -0.10321760250538345, -0.11222175301899875, 0.12233507838353883, 0.11834353471948542, -0.01809603517617482, 0.11546711909495125], [-0.12415423829532367, -0.10358139749999781, -0.016687330125305114, 0.06449296749441247, -0.09319919002382579, 0.024714114564791084, -0.13001997870042795, 0.11234083143283999, 0.10179185847222824, 0.052923873580029146, 0.06496992504953061, -0.050005223512574304, -0.053879231463911714, -0.02697871730473808, 0.06007769342869809], [-0.009391549916387354, -0.128918219976979, 0.007695056186588917, 0.005833315883429863, 0.10224934435971758, 0.05838626582563558, 0.0014152654528403197, -0.12398069536113905, -0.12078693333159468, 0.010242026615405686, -0.012851621194137824, 0.09228990725368871, 0.0036404246364679094, -0.01461621183461001, 0.028595631327218873], [-0.03399226133213898, -0.062302344473869536, -0.10174395646496681, -0.1304472833982634, -0.11895705617881767, 0.13405988002706573, 0.11723948858724934, 0.11473988796574638, 0.010651049871863272, 0.006389245654550346, -0.1110904233331949, -0.0073617380267279875, -0.03759554703596102, -0.10937325666430071, -0.043946213369452106], [0.08141551032571409, -0.12274168433214018, 0.13040109717048928, -0.0864987137889631, -0.13520399086513163, -0.09240043155818695, -0.015993839790091058, -0.008917453959127158, 0.007149667393658216, 0.11444666267280276, 0.07232458658450452, 0.11360937032177257, -0.08969009378791218, 0.05478197904582102, -0.10367204404385916], [-0.08112717608183309, -0.040273365381471096, 0.129573510102143, -0.10062988521658102, 0.11338024678772726, 0.09226408520792803, -0.09278004871407543, 0.08149139938223793, -0.11021557524415335, -0.1289766930302845, 0.07012643718652178, 0.13611642804692406, -0.07656101590694747, 0.1114983987230396, 0.11709682799757995], [0.038282539874612526, 0.07975534381513841, -0.09859045567628819, -0.1350854923995902, 0.0046614846158640755, 0.045177222993791455, -0.0082685992100697, -0.07562599813558464, -0.07417044789419795, 0.006411049032021027, -0.11196467104278267, -0.11294133580334531, 0.05821632255327597, 0.0929047786873137, 0.012599483339919448], [0.0315558563935385, -0.09364526450936608, -0.02400055671598901, -0.06820863179478417, -0.08356055919116483, 0.05205790083239348, 0.13283235961002024, -0.0274322521631776, -0.09760185532837329, 0.03557855320762421, 0.08849419319043311, -0.027138442302207674, 0.09264541463080822, -0.06614396474221866, 0.05849146596915919], [0.1319909937157154, -0.04954816623118258, 0.12001916023735307, -0.09168777183951984, -0.057493044172172006, 0.0747992880699547, -0.06261474468429784, -0.053662216346142114, 0.015671594765222674, 0.10389207798701192, 0.04679240912582697, -0.04048846254347514, 0.02035791551349403, -0.019299675031348565, -0.10605526796746484], [0.06746584398748634, -0.09289431848056828, -0.06719867811251362, -0.09909913372285442, 0.011135475988040988, 0.030448596679937656, -0.0024483219807756307, -0.08457056558116316, -0.07639268582194353, -0.11356447512781485, 0.049897048086457146, 0.014063086525629237, -0.03803456992082435, 0.12247860913701294, 0.010313155599305457], [-0.1078597506765685, -0.012147919936910848, -0.007852186390145094, -0.13229075852028727, 0.11577990625683385, 0.02527540977499193, 0.01788487897569488, -0.006525918540274511, 0.02824804233466288, -0.03732717127464602, 0.006110678645102313, -0.11075400259800713, 0.06567219499476754, -0.0727366309667093, 0.039072568106549826], [-0.05240641401546149, -0.04982593093715769, 0.04319206316324481, -0.05826535443040662, -0.09872780322088792, 0.06224096117121575, -0.13472505846473956, -0.08077783128436052, -0.10353056290588145, 0.03947161930783083, -0.0601616201654213, 0.008844476147116892, -0.057811518522625796, -0.00269319524229672, -0.09645622536343312], [-0.041198588843233866, 0.01802186646311646, 0.060115265875543, 0.12354723380778795, 0.020550350908384446, -0.13223668418425105, 0.1262402149547666, -0.024763372151472035, 0.0029192301123233955, -0.0159848252209273, -0.07731045529280367, -0.1206660629991983, -0.12421067859420627, 0.05873745133534694, 0.05045465987672548], [-0.1003911101873693, 0.09314134961960852, 0.07940418788776313, -0.0846631358875772, 0.12310347941463348, -0.0940254021557094, 0.11913338115032715, -0.03675577012448289, 0.08257086896816415, -0.09446048159634429, 0.11911699949899515, 0.08585635039108094, -0.13707855762632773, -0.04045820693752508, 0.05024118711283887], [0.05540976246188559, 0.0643878895833861, -0.03971296796361978, 0.0862913233972275, 0.07805205426087516, -0.06923760770138125, -0.09227427149782398, 0.037744546813402974, 0.06104533855186062, -0.10785558610699315, -0.10373163137407093, 0.08733403028093953, -0.04046126397362736, -0.041988733453778224, -0.10214324547346104], [-0.119405068060344, -0.0324215899498624, 0.04174249171926095, 0.0127779475521341, 0.02063523631212341, 0.08857031320163894, -0.0923790382817267, -0.00032129791362864313, 0.024110282112332904, -0.09647681424220711, 0.06347831320057973, 0.051881411979679354, 0.06900717435489778, 0.10420729469289303, 0.12233016994850884], [0.06449939135059357, 0.029195857560036204, 0.08616912777815458, -0.03826755603412492, -0.05973391908003038, 0.07903180847266236, 0.05694589878716033, -0.0263872151933202, 0.13584998706524118, 0.026145018499158346, 0.12497866532605442, 0.03805171745821584, -0.0837050411743856, 0.08855237932372598, -0.04158105238385172], [-0.09361432716721203, -0.13090698306629087, 0.07846572569976043, -0.05618783156026931, -0.055912191672625206, 0.06351926199091865, -0.03394581662100747, -0.0858828117442265, 0.1096675283441094, 0.10777886669493836, 0.1320837296592278, 0.022410581108035094, 0.06354592714704091, 0.06009579633128115, 0.12155222747405106], [-0.09001935248256662, 0.05056558849294415, 0.12957979321484384, -0.07159891700664625, -0.13499682201269922, 0.06675841461257331, -0.12659887013141607, -0.006964364706884996, -0.03567412705641594, -0.02328913175842655, 0.007939253917282757, 0.026107508856314215, -0.08109701927613469, 0.019706592240133325, -0.1218371160383157], [0.08517196515930553, -0.11341628111298643, 0.06152698954846933, -0.07286451585408235, 0.11693942267337151, 0.12944850618545942, -0.11108601035332462, -0.06718457919379969, -0.03300788385435205, -0.01983389146968148, -0.05882313021824438, 0.10258596878459514, 0.05423782820470657, -0.019351491733102397, 0.1305694759582853], [-0.06582715416242067, 0.09398410197787932, 0.04278043696133885, -0.1242031643228399, -0.07030873658201209, 0.022884450313532673, -0.10316929438801115, -0.051667754478780956, -0.10154252957095586, -0.014596728049310392, 0.04686239074153248, -0.12517149010626444, 0.09025635679791441, 0.04229894119890301, -0.09618945670165002], [-0.12624028022762798, 0.07013734718383777, 0.12822334398663796, 0.07628976982813204, 0.040049316883660924, 0.004498474664122426, -0.07629708200677243, -0.028491910141508883, -0.07453675052453217, -0.08304147764394584, 0.11222869913160904, 0.03791122107393802, -0.010323209171617775, 0.04120893310227933, 0.026505391057030897], [0.09871201523152062, 0.0617488031885505, -0.09303576865862571, -0.03145868209141933, 0.12071727575901317, -0.013312507943473662, -0.03627547183365491, 0.0474276917816045, -0.02854497397241891, -0.10839807396923279, 0.0948029163868993, -0.06387032837728923, 0.08612771351692508, 0.1283482793876329, 0.06221522436427368], [0.040378468726355976, -0.05856205771837936, 0.10330187265626198, -0.1258650036764415, -0.0946935075969888, -0.014604837726788, -0.03918225294850497, -0.046461666901545004, 0.004286284075155994, -0.04167387470432786, -0.030709943111508695, 0.02090912265122244, 0.010652717289048458, 0.049882773091565, -0.10292965204243666], [0.10842310296186258, -0.13047691402132988, -0.04982055680283981, -0.05030063750772673, 0.13461117298430272, -0.036792299827377986, -0.06774125556296788, 0.0800107860570668, 0.06353280861300484, -0.04467381412837429, 0.02497915779391638, 0.0015806169903256062, -0.03629535685001457, 0.08327723552441937, 0.03152880001558489], [-0.054218736002352386, -0.051999738978353055, 0.04846573872107712, -0.10083779964255501, -0.0716964075125988, 0.09603379296560621, -0.0960193609762934, 0.09553313520397225, 0.10773714954163408, 0.10082743927334967, 0.014962878496198845, 0.12536545283132614, 0.04308901585990138, 0.10862367396753586, -0.0004408947835644328], [-0.02647642673580955, 0.02749096474656587, 0.07546275012695117, 0.0862202581955333, 0.0029130111040437945, 0.12020373920990776, -0.11956251442171643, 0.013149843734127142, 0.00020104427235348443, 0.05098172758347236, 0.1275688314332877, -0.00803277082710216, 0.1038291047283513, -0.07008308745078846, -0.02210857082167915], [-0.05611380910204582, -0.12154400835487293, 0.08171999950459985, -0.00857665222293888, -0.11691607392366625, 0.029851969470237993, 0.0825114716647865, 0.007350713442453138, -0.06464160966503897, 0.11123278636728684, 0.06911611127295991, 0.11445544942734456, -0.08709758036255075, 0.031130674379626078, -0.06331566909184919], [0.1310324963713125, 0.08270652598770148, -0.03455543919488681, 0.01701968207799756, -0.07591626765861638, 0.12452615944872689, -0.08570616042034715, -0.005931302323439691, 0.133635049304642, 0.06366075448103031, 0.12454637835405638, 0.10410305235743453, 0.02672419987318797, 0.038512923490769846, 0.02684217318205548], [0.11592087830797507, -0.06371613670450749, 0.0036568097003155664, 0.0711146448339938, 0.13297969907370225, -0.09514787415056133, -0.10927391935120052, 0.00147513474426067, 0.09881824413691503, 0.11767158974039096, -0.008428773392037875, 0.11436568467429067, 0.012482580387442127, -0.003259428937122527, -0.05404011284140439], [-0.08806469712868563, -0.03615224591223018, 0.010084806753233144, 0.11615499917488084, 0.054445723162270226, -0.10055571837706964, 0.13191721852713814, -0.014378057086039078, 0.02724399793901744, 0.11052390237839924, 0.03507277362625305, 0.05764824071343419, -0.13499682913885228, 0.006318911711743286, -0.009058579131393796], [-0.0010818414454011327, 0.0126947694477966, 0.11949177633372807, -0.12425846313942464, -0.11285585273343304, -0.05278104531119572, -0.026112590147843784, 0.0698885386851914, 0.12871447082391865, 0.023393695968431688, -0.09918122110118253, -0.12622220795031386, -0.10421038892319928, 0.0073207331508667595, -0.12967171460063226], [-0.05242818365113788, -0.05004295996684109, 0.028428274508026374, 0.0023049207478808287, -0.11196590820573969, -0.12081468509267512, -0.02235678548205758, -0.05302415836039635, 0.05659708742472619, 0.027277610952483128, 0.12023974981273808, -0.11317080468084795, -0.01435196630869999, 0.09305007642115942, 0.0528097446836574], [0.09833916249561658, 0.023941337705083027, -0.06226114291935958, -0.027007409163236587, -0.038673943366309096, 0.022701289719496004, -0.11641799372404145, -0.08903310477721824, -0.04346763598316403, -0.08503786346664283, -0.12859867588362917, 0.09328600650356875, 0.033002846772927585, 0.019774556271817095, -0.10159022487828717], [0.08726863866076731, 0.09012422945991355, -0.11385411288240689, 0.01674858945999111, -0.044858256406894864, -0.015008531920863377, -0.11614315627859334, 0.051813119282523246, -0.00945841667431882, 0.03213942722312721, 0.060639584505866706, 0.11946875645920921, -0.06551400330329515, 0.12354314817102677, 0.10827571912688655], [0.061538814726146, 0.09780556503767926, 0.12493278740911914, 0.13452301660740937, 0.034618209872072675, 0.01925983437436249, 0.11547628815077168, 0.03339799553486897, -0.04700287875511931, 0.1284497742839654, 0.0273216366621315, 0.08932785371315996, -0.02938834686825076, 0.09754031821884102, 0.04130556855177012], [-0.0926403194305627, 0.12429219695731988, 0.009537436343310723, -0.06639829825146795, 0.05154519987408071, -0.04597479361596296, 0.1336700149176228, 0.10724160563605045, 0.05881716238597959, 0.04562475897948337, -0.10913842475600115, 0.13520014129166605, 0.04645863890240112, -0.0640456924711158, 0.12870445449291065], [0.12061639814229727, 0.015647244389323717, -0.11393503911239784, 0.03789143873976775, 0.06465184692844803, 0.0007279562850038557, 0.0684600438249732, 0.0912879665457278, -0.03647376990995717, -0.04040472180803795, 0.031535739109306044, -0.11207324868002883, -0.021269622198080873, 0.012543864318699333, 0.03306600051492381], [0.09776752949252365, 0.022286895065965595, 0.13324417063225522, 0.07815589240827056, 0.0768098673882445, 0.1273633882178514, 0.042937815943054236, 0.11963955207857743, 0.006384888736652328, -0.03957359395606988, 0.11105931932040045, -0.09139591830955404, -0.015801808519038424, 0.057983708691880104, 0.08721231552295133], [0.047897480677021154, 0.08510383126441837, 0.07200190163168732, -0.07910654103966074, -0.10669594093312401, -0.11117374073411991, -0.036171166182524264, 0.13365200457799484, 0.017625849047033904, 0.062186124730950754, -0.08577591865402383, 0.06083298556252856, 0.03573809175714329, 0.02090874866460124, -0.12872931501492405], [-0.039996577928725865, 0.10477818751280754, 0.08929542616441807, 0.03176447678423411, 0.11915764830120909, 0.12187854281911922, -0.06952261007872997, 0.11264163053902371, -0.08963013976027581, 0.01744274066472115, -0.12368954893195257, 0.03363185521223755, -0.0033965563300412116, 0.08168907538127296, -0.010873856635144064], [-0.03838769420948736, 0.029672259987568117, -0.09092286541261027, -0.11945932370005642, 0.09317359250829133, 0.08675734579746444, -0.06694056851151653, -0.11434781333530762, -0.022167153340094878, 0.07645405280558262, 0.04904290647278786, -0.11679819589481484, -0.007480060295077806, 0.016163814361410317, 0.12499045122855398], [-0.0983368918184593, -0.06551559099002205, -0.11293799566428839, -0.04840915898355756, 0.019312205210386985, 0.11053188295567182, 0.003294391784476325, -0.1257510132959675, -0.05620596007768591, -0.10510043348277459, 0.0971215896358443, 0.09314685050555732, 0.04043734615689448, -0.060342812517604205, -0.10065494588374574], [-0.04950918547429124, -0.05630716977328226, -0.028511637660132677, -0.04110557436008069, 0.13413722573363282, 0.04957736887079925, 0.12567037938849548, 0.10043500908347702, 0.1295485986329469, 0.010935659790645341, 0.13628449669097678, 0.08401691263379527, 0.09778548453869138, 0.11239721381168871, 0.08311099789586121], [0.12641753407360742, 0.011943796876485557, 0.08436578064211689, 0.03535309205467291, -0.033685018741472575, 0.05204809028607807, -0.017406515200746445, 0.11254221119744812, -0.09231404548032004, -0.047489821802593674, -0.07744559362986211, -0.06885143266489215, 0.09263664121465284, -0.12462855128429359, -0.04963096797826573], [-0.004276341789416577, 0.08030786247215518, 0.11639865921768658, 0.1166897390657958, 0.12738921110147614, 0.10641875531412937, -0.012333534855103662, -0.1284669555100635, 0.08235098592309575, 0.12585038862016504, 0.008943137461896317, 0.11112079152818499, 0.015170267722733999, -0.041081742871754715, 0.05328257354013591], [-0.09249593466013895, -0.03943877916019638, -0.09277578354110161, 0.045261257661608656, -0.07571850207579264, -0.004078758800882792, -0.10209235090655605, -0.11851771866751504, -0.12664845960717605, -0.10225195050949137, -0.04086706994759917, 0.059755104342473386, -0.06715874771732541, -0.10164224948895098, 0.10195546291734231], [0.05471535518512924, -0.012197883179072791, 0.05069594491807164, 0.10094676067467492, 0.01729630372116303, -0.06904925986900627, -0.008753433184409382, -0.012596934011398886, 0.061019165039848056, -0.11772787733342033, -0.023846025447467847, 0.031440018049440355, 0.03893597560576506, -0.0980404881236698, -0.01245458951967661], [0.015507854479696825, 0.10261833972027634, 0.09965348340213229, -0.10923522817744408, -0.13401110074520245, -0.08730479667816946, -0.05892505643630479, 0.024467652046577498, -0.0838547559361536, 0.07844011902899131, 0.05366469896199305, -0.0803035666947059, 0.07804907465529726, 0.12284842001171462, 0.043207150068947514], [0.07260974323732561, 0.11908076480743904, -0.09668817722029249, 0.0867594467223873, -0.023862555869416477, 0.12722286314159206, -0.09135226423649995, -0.030071172072608177, -0.13111455267683414, 0.12943212580685556, -0.1192282328657148, 0.08358859387493559, 0.047254581870258966, -0.10977371269917963, 0.09683808587246903], [-0.02635781883258269, -0.12673724443696277, 0.11419609502688069, -0.1343143890211903, -0.002910281289586647, -0.030269812114081765, 0.04934790268684239, -0.03668642052647651, 0.1002873720798412, 0.05922751898932327, -0.0780398641871973, 0.02247279907765165, 0.0792462952895947, -0.039714939037957434, -0.10504208973169588], [-0.09851546919589921, 0.025563705496273903, -0.007895326585497103, 0.12871669118216625, 0.13368318790084419, -0.009214146365321002, 0.046978364731050104, 0.10235619847082703, -0.07391151372075895, 0.037911141710996715, -0.011653371334248236, 0.10770419076853924, -0.08557928721306196, 0.08397671724430852, -0.12671116974357333], [-0.008916957393169445, -0.07289526572305431, 0.03255181269432059, -0.025834228682357227, 0.12100018619220251, 0.06841092861496462, -0.09634191735048059, 0.11018740660938137, 0.05353651947896365, 0.04611398153035401, 0.0034477458180969256, 0.06741985181669233, -0.13522035170346788, -0.0741708171750147, -0.017790620185571718], [-0.01884924003051737, 0.028628925137363676, -0.013161725105683753, -0.08869918915051414, -0.07398521486215738, 0.1132497757813917, -0.12795249391955962, 0.12753613691269597, 0.11782502080881904, 0.13586162022208828, 0.019963463247130636, -0.06555645571988102, -0.10825164774598196, -0.09826170272958965, 0.06417266019599457], [-0.0016304494899223865, -0.09718700686319802, 0.07734286933227708, -0.10691152899155497, -0.10112633633421228, -0.07489089975765534, 0.0415564986953825, 0.0882515147265622, 0.10736845554660346, -0.01772783263982461, -0.1265383667829643, -0.047364771461064076, -0.12399358376546597, 0.06302370865952853, 0.008788066317299947], [-0.04004783235232723, 0.11575846565870615, -0.03288599034485805, 0.10726687191408682, -0.11426595546967735, -0.08402382148841256, 0.01520140073798154, 0.023129310054260277, 0.018874698092299497, -0.03274700201313542, -0.09706445602823041, -0.021714255617091352, -0.027360232400564788, 0.05214072736391395, -0.06060109290502376], [0.05013179101970264, 0.004957505465265327, -0.03811996858526462, 0.09548474481702401, 0.0961844889324158, -0.11906292880036579, 0.0798262466269059, 0.08096347564818215, -0.12055931407002764, 0.06349319594521932, 0.12936592094813268, -0.035616180973139344, -0.01895574687402163, -0.061641067425549756, -0.0084711664307425], [-0.10049109400331446, 0.0908565573837248, -0.0035073032887786015, 0.07834503297088619, -0.024702130352226154, 0.029765899969158127, -0.12561808778977618, 0.07176016614084574, -0.0479056504571006, 0.11964930554433897, 0.09940826233910474, -0.11188022963914114, 0.018700181626638085, -0.07502027384997402, -0.04725218769399095], [-0.12890364684988465, -0.07710379487008148, -0.056439415618292105, 0.036126530714901656, -0.0556867713075245, 0.10426036528055038, -0.021436234550876565, -0.004358864714313265, 0.034767222897596844, -0.08298217958832704, 0.024097239444331148, 0.023717443495965357, 0.02638148440776164, -0.07489304632452382, -0.05964948213413798], [0.13323810300267794, -0.004683486591594149, -0.08098483095280382, -0.11610265580707778, 0.11637998420630244, -0.06386094328366754, -0.039314787417739985, -0.09669620693348782, -0.04168634238652838, 0.0989104159605482, -0.07591890754831015, -0.08346649589455293, -0.11492315095089119, 0.031123722580697066, -0.07093829660166379], [0.09788854605305305, -0.07395644957585917, 0.008795711570896758, 0.08845196633374652, 0.01586822815089603, -0.0036606680291153826, 0.04821033124766008, 0.08161145356254848, 0.11123103334971765, 0.08643718395655284, 0.04228405111924263, 0.029408015172136343, -0.1163921355954745, -0.056401708352687915, -0.09446204512318615], [0.08632073849607674, 0.11176529773223681, 0.12880508904663687, -0.11552505842104249, 0.07862845745404035, 0.09398963964816137, -0.015138233268496837, -0.024235729533746905, 0.011133617353678932, -0.1147216867786148, -0.0056834451675894515, -0.03596506177073007, -0.11124645860420561, -0.12094572213595521, -0.07042267211574864], [0.011198922590381771, -0.034964713999241476, -0.03925576420025097, -0.12849727764015217, -0.007941648873177665, -0.02558709003858492, 0.08400286934763668, 0.0386014281820134, 0.07853779807750541, 0.10294877010764841, -0.06314320981492282, -0.10565826992429073, -0.011682033770297251, 0.0116291352079759, 0.016954297689366238], [0.12904573412317547, 0.043312950325730626, -0.08645725515541709, 0.09354501580693311, -0.10868342230605606, -0.09816849894942328, 0.01737950059288601, -0.0009242190352630186, 0.06618787858914182, -0.11632171238811415, -0.06852686993396864, 0.0954208892669661, -0.03410684134016659, 0.023655023958733812, 0.1082247747120553], [0.0684573458623714, 0.06455583077511637, 0.03172015592744215, 0.03868667132502909, -0.04977404420377603, -0.021144238527672138, -0.049750694280406724, 0.04868841984287642, 0.03489774691702477, 0.03343386094815026, 0.10032592839511703, 0.12843626431618735, 0.04363011344381146, -0.0013543585830592397, 0.019345745323300134], [0.12196627218860087, 0.12859931299585067, 0.11450066033389197, -0.08454380905298464, 0.031022321559007193, -0.022246873818421192, -0.10313319168391225, 0.11034782090449077, 0.1362033101265774, -0.035751023952333524, 0.11324399479217609, 0.12832064060341344, 0.09568911122379697, 0.08493598264280672, -0.13481343483597455], [0.07905260169112358, 0.03378035980325966, 0.06994590949978502, 0.04133509621167397, 0.0633921637552923, -0.02056279003009613, 0.12141267624592736, -0.035511579087318446, -0.050615975853753936, -0.03480328945808969, 0.126837729438297, 0.10223813736712958, -0.0413980778382502, -0.1255325166604464, -0.1281464609871242], [-0.12455201742610023, 0.04982417481429388, -0.1105333606061212, -0.09377074222915154, 0.002689122158051227, -0.09290644856170276, -0.03719760701239794, -0.005869935629079975, -0.06093202889490251, 0.1056111906921223, -0.0895493055068226, 0.05422213207125781, 0.054491233440223635, 0.1369663555002972, 0.08195592015854822], [-0.017047766148352156, 0.06523749342034296, 0.0361829261500988, -0.1291171244895546, 0.077894785223669, -0.04092170242157543, -0.06362627183714968, 0.02514144427632936, 0.07842666355733818, 0.0755655913986038, 0.11040650549611253, 0.13138470470612837, 0.05950611896016167, 0.13072330864472717, -0.020632800237184987], [0.09256825101129249, 0.12572309345452118, -0.02856263170471221, 0.024819743033163533, 0.060763856120808285, 0.031268238139641, 0.10348464776961269, 0.02915690727257328, 0.07614151593677498, -0.056479796904775906, 0.013588016872039005, 0.1200484474355448, 0.0869657305819978, 0.035199701203752876, 0.014702571969909123], [-0.11304499923377723, -0.1331687999236421, -0.043021172101742056, -0.01565701229570156, 0.016932734215465067, -0.08129899058867171, -0.05962538277289996, 0.1311699485857297, 0.101020105569707, -0.01385354649201316, -0.03615131630484268, -0.08682580382104868, 0.07066294142814697, 0.12812437763501253, 0.0402761624071519], [0.0020255577126876145, -0.04801242701034786, 0.014667159946508884, 0.06904644026932052, 0.06334690412365082, 0.09067578414529648, 0.01881137864541574, -0.04273216590054563, -0.12870597242651646, -0.02508399577292833, 0.10998244634336657, 0.025934648527160098, -0.05090601647843841, 0.04602641805714233, -0.09220877909939842], [-0.11054687983094884, 0.03291801570975425, -0.13671331387584168, 0.05503357706939002, -0.006393458674272268, -0.07910982673222261, -0.01212684462379704, -0.06560338077380116, 0.038186641974921914, -0.07173997342182005, 0.10072979835661308, -0.13264741540326494, 0.12629471362435926, 0.1181704486599097, 0.03222573362577272], [-0.12325646002652138, 0.12020954906684342, 0.13318231688010548, -0.026745034953151253, -0.002049468412361255, -0.12368561019532356, 0.06326120863975579, 0.014939370033915322, 0.09296778337555431, 0.07413549745587045, -0.129527696924046, -0.030251877588656148, 0.12824942802617909, -0.12832738381771255, -0.08028638679442585], [0.07829413270952462, 0.0655453180481822, 0.0031205835578792807, 0.0066135036896096955, 0.09986485682831792, -0.012859409646612377, -0.11343655583640694, -0.001962414566737125, -0.09132475955536092, 0.014978412459535295, -0.007939360258002515, -0.025308779678619733, 0.011562607155048671, -0.030425596740587937, -0.028419919394878063], [0.05457050770488692, -0.05797918308552255, 0.11505187721549157, -0.11846977803572889, 0.1187712679973896, -0.08925337444810688, 0.1285339843888643, -0.04109653497066927, -0.011870914194578752, 0.06564453375764404, -0.004116917094396044, -0.135485647199463, -0.13353402733478817, 0.014097052689656275, 0.08305877606130296], [-0.07017627455036578, -0.08895429368389551, -0.07601734157207367, 0.07797377191812979, -0.0011997473087793087, -0.011490522889266386, -0.08490668086167406, -0.007143859980894479, 0.13310092152945244, -0.09886951024546217, -0.12908725864826978, 0.1015739756953363, -0.05107756395747581, 0.020884729096127902, 0.05550132166617536], [-0.07542736460249923, -0.036819280512730826, -0.10442553428970434, -0.05417142059451727, 0.08590746200107363, 0.11586513911064808, 0.017188842804662985, 0.015411578986691793, -0.09656366244595985, -0.11696566281862848, 0.0714950410587408, 0.09857489927776844, -0.0633228914686159, -0.12783734591016285, -0.1289629588465264], [-0.08081368040093187, 0.12007183132573282, -0.06459753734544721, 0.05996656702750364, 0.025842247802410623, -0.06229232553271637, 0.09575471923660464, -0.10618767869228873, 0.09921554503746818, -0.0034526830466826974, -0.0642146875480396, 0.08250312344307328, 0.027333841323258362, -0.06126558894211627, -0.030051589892041777], [-0.01437867264977355, -0.03288250838971642, -0.10656362859521742, 0.0364140992164442, 0.06749334595663878, 0.0936453685075721, 0.09958867925655279, -0.13126019374315373, 0.07228820492819224, -0.10594822740284286, 0.05294854430522847, 0.030091408304125877, 0.11323777332395582, -0.11554488051146167, -0.007467060295381828], [0.07148259429297246, -0.11927546118930374, 0.03178550879952391, -0.006895032403485213, 0.06948172044615539, 0.09502541606170439, 0.12360312765019424, 0.05254943494243086, -0.0241893088697831, -0.0006476240540373435, 0.0715837686425522, 0.011767953720115298, 0.06559579925443837, 0.01485934845953027, 0.014923140067236745], [0.11464034456275443, -0.11471688326584113, 0.09055765826851814, 0.006307096363303094, 0.008522577550499566, 0.09325784713441745, -0.04201746433744066, -0.08453393271238151, -0.04370834781530661, 0.0590014647918744, 0.06558803122739448, 0.03613423172906685, 0.064058806986934, 0.12363262880533546, 0.06723706050785891], [0.1294164179803952, -0.10921857352365248, -0.1254693727821779, -0.04330570190402902, 0.030079425864974085, 0.03176929896253883, -0.13200336950201969, -0.11826062007697334, -0.07768723113964969, -0.05092801537653095, 0.019672200270400286, 0.08496441399839835, -0.11696271103462212, 0.055528833899846475, -0.004663509795034715], [-0.0077009604975855905, -0.07890441361986747, 0.04929567011383376, 0.10491937181648331, -0.04265123948027706, 0.1334874850398495, -0.09464973712360228, 0.02077214807528352, -0.10420750916314042, -0.025693785522799092, 0.1260899627631372, 0.1104192895084575, -0.028373808414372037, -0.06619484693260495, -0.08397399679652365], [-0.062050619918802036, 0.057094875558731634, -0.10453136148693687, 0.08997482748055483, 0.10400293567612495, -0.04314994667947045, 0.12059849295018552, -0.0897506282822135, -0.0417392200261002, 0.07939899053652016, 0.0073873012605721045, -0.05999159867179309, -0.08182458733947234, -0.04502514423027369, 0.018873363783565772], [-0.11443377065109211, -0.053389677037659025, 0.012871835429499684, 0.12191442650161519, -0.036788262277390835, -0.06225615342770646, -0.13566114179265568, 0.014372811957169995, 0.10980839365432823, 0.052984978129634624, 0.06804160396181233, 0.07139534090859909, -0.07689674193141116, 0.07295092120791993, 0.09719777190283671], [0.10811494602201685, 0.03329940108391066, 0.07371285299588126, -0.10056060261160632, 0.053540684883822964, -0.02827004666728604, 0.11836063094413127, -0.022370418135139278, 0.031613240401427184, 0.0029926925445645514, -0.08726821496344334, 0.07119846035227817, -0.035318349624897855, -0.10416517140071191, 0.017128165930985012], [0.07263791100519265, -0.0333075518481705, -0.05565864792002252, -0.09367688908305051, 0.07552253874954715, -0.03585099900501758, -0.08426151557938238, -0.12873799814831238, 0.04123332805044774, -0.12604337779563424, 0.034020389174628185, 0.12781621479809638, 0.1363362544208148, 0.0352324310303663, 0.0088332255229574], [0.06947269274345622, -0.0962639886523, -0.034386517835405875, 0.06567479688468461, 0.1340570888841108, 0.05443078822108727, 0.08135163747172278, -0.11346294255706343, 0.0687713375196364, 0.08846796463372714, -0.00926858804621336, -0.0006147953834261255, 0.10806128988015429, -0.056490796976623944, 0.10931257378280448], [-0.09159795573392937, 0.10287591227504078, -0.12977833217062812, -0.048149758931203976, 0.11379806813062568, -0.011389433588402081, -0.025709155093670236, 0.025961184899106204, -0.13030431358034622, -0.05013727671931936, -0.12305465469174684, 0.013326528233953944, 0.07422202729852509, 0.06585747717637186, 0.13678606710534494], [-0.12361329674980058, 0.03314975164373479, -0.06441606743061151, -0.0015033163996131527, 0.0314403811014172, 0.09080671725924205, 0.12532743656679304, 0.08497325007104753, 0.021496563330491575, -0.11891483784217466, -0.032854362375725546, 0.10099383218084038, -0.028501584052193205, -0.006518916837298883, 0.11120739735168272], [0.11755737052726087, 0.130897446639574, 0.08418483736639162, 0.019564131722102862, -0.02638930349279478, -0.12259699237821123, -0.11115131955075103, -0.10959905119089725, -0.058605063839674856, 0.06387171533598274, 0.0009138486999072382, -0.12786214777810184, -0.0783621846913556, 0.10811970593911738, 0.07355836663132426], [0.05340195188750621, -0.10289485074295833, 0.11590356421401357, 0.055907949098587595, -0.044777257453410615, 0.03183763483493299, 0.12562996323494033, -0.06712569100571915, 0.1118668023068004, -0.06404392149545672, -0.014214747467548389, -0.13606657611321754, 0.016848632920337697, 0.011094077928522572, 0.01922142127330656], [0.09076704614124317, -0.08609697086114074, 0.04252037519167501, -0.06615364449028363, 0.10757414893178749, -0.07154586402305808, -0.11918907324401853, -0.09334920942371325, 0.09038661250102101, -0.0923348543199489, 0.0729054100510794, 0.01564473281530851, -0.03460070187573017, -0.10178478948787231, -0.11024000724586827], [0.06227674182155704, -0.13147702177225387, 0.04361645225465943, -0.05558187803440802, -0.003240875893261941, 0.07024719952054531, -0.07771512343419337, -0.07645123943700288, -0.04003169369994547, 0.012469792328154594, 0.08263021607743934, 0.11376572734286108, -0.08959600343719974, -0.07321977441273807, -0.07712748392961394], [0.032853289256440044, -0.1083695640661397, -0.01606650656414539, -0.13644209425310308, 0.11893911686484379, 0.033341974359051035, 0.03524215063850658, 0.03467944602321402, 0.02968945362731093, -0.10060720718730996, 0.0815816709613853, 0.029746449139824716, 0.07165001100112617, -0.1136305387141277, -0.05758652969398716], [-0.08475893862088643, 0.10328188035669683, 0.08442000046104098, 0.060498856823021585, -0.10435477698582324, -0.020241122660679692, 0.0677390319866017, -0.03076389563920369, 0.06017349241295644, 0.12794103901176093, 0.05184843521014565, -0.13418991471955363, 0.12335860006164309, 0.135891880086868, 0.07405759564914965], [0.009599712486726614, -0.016793722918131637, -0.1236298788237159, -0.043155485350661216, -0.0509992720348172, 0.08022346702420821, -0.11881523156390322, 0.0888910313201966, -0.10064270847247553, 0.017202285646502558, 0.13424595903090383, 0.006517213842368114, -0.07548169677702168, -0.0008892890159589995, 0.07469108007394148], [-0.0381180223702037, 0.025143751468841874, -0.02922786004106427, 0.08652985704990618, -0.05889597499282079, 0.03482073783081993, -0.06664304640676696, -0.13596348366713895, -0.12623580921167904, 0.05113854904389112, 0.08716268066690303, 0.008400976365005919, 0.12519238582869466, -0.012297019273793314, 0.08841038500394124], [-0.11305363871658825, -0.08530017995796912, -0.0074167985920036705, -0.0517048730893412, 0.11808067937112102, 0.06136292626357459, 0.003755523826348417, -0.08400219912714, 0.03645987862334518, -0.019395449574541562, 0.07589605381114736, 0.1260014122684208, -0.12972941972353422, 0.03240072261620175, -0.08927770951404254], [0.008954395891459438, 0.07302085217423876, 0.01768305093380043, -0.12240015071967993, 0.13330205431103456, -0.005419992095253123, 0.07381982452732025, 0.046843225545083605, -0.004758975144200317, 0.000947512805877182, 0.09521173378917788, -0.012109420895966005, 0.10372230315403949, 0.025955393513128144, 0.036074683756429776], [0.13218385754517767, -0.026196538135517825, -0.10544426236006835, -0.0859794838778298, -0.06392882727766638, -0.06359931840185025, -0.06310702952912599, -0.10902904050839073, -0.10827263506042695, -0.01895163316129779, -0.07999606796084296, 0.0128289598881344, -0.06071222467133458, 0.03185557141918294, 0.08947902828817969], [0.12600977920435738, -0.052996666094173056, 0.04440468951119414, 0.01449114142381211, 0.13609321957698625, 0.09094095634903682, 0.12479293026361307, 0.03154488514601217, -0.12490995026417671, 0.07316013708586364, -0.026090551687541, -0.059349311167758004, -0.13517531077165962, -0.10649587012684908, 0.03441257620897495], [-0.1307325161065856, -0.0162811062878548, -0.1243732337506911, -0.05685586622963766, 0.03690463432338545, 0.057850994900620484, 0.054018318795370335, 0.04730954658904876, -0.11294234235269078, 0.08362649021597354, 0.0005884724162674437, -0.08635956347671428, -0.019561803621583232, -0.10216674022788856, -0.1176476082848428], [0.04426532888762799, -0.09112143863632503, 0.04860952233002086, -0.04668433214370167, 0.02066448506891938, -0.03134854139111237, -0.13442088246522332, -0.015580828038497585, 0.039644962096145014, 0.06282532499846183, 0.06483172797377226, -0.09687374254878653, -0.0266898176431999, 0.11321204052783565, -0.024156786652153484], [-0.11840990899367254, 0.1130299409817451, 0.012755970077525686, 0.0954844451733991, 0.04233698383831208, -0.06152146393538041, 0.08006935185774822, -0.1008924362701958, 0.06545856401494618, -0.13633328631959726, 0.11253021690040274, -0.015134645247813314, -0.017629375774523934, -0.049756931585000094, 0.07074501187508761], [0.1356585320044986, 0.09279279719959627, 0.03916317857365015, 0.025533544302920708, -0.023116634368182037, -0.05462122761764342, 0.0954410768469818, -0.00919538830995345, 0.11444938461212265, -0.11335637307919341, -0.0249565343151876, 0.12693466638607445, 0.07525283879034098, 0.09558976617106535, 0.10580052770590398], [0.02698251069834534, 0.09917556920261739, 0.13112283289603807, -0.004897262475928199, -0.12909314478194903, 0.031717020608541535, -0.08932095219951462, -0.05773214101766325, -0.12577043555668582, -0.06895772883823016, -0.06164060318894016, -0.03616926037123605, -0.1337518977807984, 0.005606215189347563, -0.038801890703571776], [0.012299161058880959, -0.057040325472833636, -0.08783311002879207, -0.00284650064649275, -0.0350078659999333, 0.07911819854229427, 0.0044459496063060655, 0.05330710501953778, 0.07519118106716288, 0.08110682789225251, 0.011949273980760705, 0.10441197039016425, 0.03293790857461698, -0.037203801249381024, -0.07923747312383048], [-0.06820187289874254, -0.13402442175117196, 0.02761075996094256, 0.041071446905803166, -0.09092064504090291, -0.010476990355699628, 0.05729737543519384, -0.007859811892510254, 0.11271232771507253, 0.03964454488768651, -0.1142282221668837, -0.007434726803450059, 0.030782222755721206, -0.054310315842656, -0.08795480398610636], [0.015020478497520112, 0.11708841875335288, 0.05436300981427611, -0.023542308625231323, -0.1022213433626855, 0.10821589670015261, -0.0658527727558909, -0.08957425998172834, 0.07126137161553198, 0.09757490875337485, -0.015991348564667413, 0.013305265996638088, -0.11945290804689596, -0.12248695196941502, 0.047804490161796886], [-0.11616582248911289, 0.048414041040421296, -0.03743250622026455, 0.05628222403350691, 0.12936203715735858, 0.007107907611547448, -0.06283400973422316, -0.1190017337989113, 0.06370019490615558, -0.10136748986678669, -0.025914636038756433, -0.07163052157068044, -0.12000695544156674, -0.11198457374920784, 0.12893932894168056], [-0.019366736804795823, -0.03704643767651, 0.06630771233676311, -0.06713015154952931, 0.06444232957182808, -0.12599870535404772, -0.0037019930717298033, 0.11467563655629862, 0.04825392573002643, -0.008381076759846728, 0.12061849790363524, 0.01720040636120665, 0.086979954898395, 0.040833829534819926, 0.07429445145807509], [-0.09832046524932489, 0.12678302315633114, 0.060122120371070814, 0.11166390030113216, 0.029465191823445314, -0.09375382894348167, 0.10541786768036768, -0.06435907263155188, -0.0507477923057318, 0.007317721843240532, -0.10533946157113878, 0.10910257009443233, 0.13053006985820656, -0.01786164927835658, 0.061699502793611916], [0.013521141617679366, -0.012083665550425254, 0.10071089487576873, -0.03956559966899413, -0.04441969402935386, -0.12357295352878427, 0.13461663653551662, 0.0399923222427572, 0.004983730597564934, 0.08671794905024169, -0.08321965174467927, 0.018258744912401675, -0.07637102761926155, -0.1052394810749934, -0.09429673617776874], [-0.03925281598301959, -0.002513230200439559, 0.10038495785652024, 0.049363259675934024, -0.05635298338492545, -0.012048012124619173, 0.08638301614561758, -0.034414690719050664, 0.02712233875365172, -0.11158671906200238, -0.05741730445915312, 0.019566096839096686, 0.03645452895011328, -0.04940772222455421, -0.10066984566582819], [-0.022455437302945844, -0.055679249567082006, 0.050316804449129726, -0.013691792855158896, 0.013306499688995888, -0.09052965349253347, 0.06666715114704674, 0.03829398079453267, -0.12832808378931168, 0.06760049028310655, 0.07549939725918106, -0.1225322818807892, 0.036066501758477004, 0.11960683918815099, 0.10638332750890217], [0.01578218839414297, -0.08304546876099256, 0.11756782352895587, -0.05884370881177982, 0.10864861684628441, 0.03503615895233156, 0.0025295778811463276, 0.06786832570504725, -0.1194580292451062, 0.01064359651441224, -0.10226734450822753, 0.10052273034543524, -0.13464148422477934, 0.0202128309347748, -0.05563469963148859], [0.10980626512327996, -0.07514491057801652, -0.08679551508277503, 0.013491872611125194, 0.059732719032297044, -0.13168054548938948, -0.08212244456876598, 0.06584644339140183, 0.03206643626863051, 0.1141481241988048, 0.10869879868067678, -0.09239411865260752, -0.1075755214597062, 0.019578883618177362, 0.0053826550612713076], [-0.05198251240917655, -0.1301753990680631, -0.09923344209995066, -0.05679514147686557, 0.08952309804557149, -0.12355009015461568, -0.033975441821688324, 0.07444630497901547, -0.015165756873408251, -0.07152651303902428, 0.05002605151978409, 0.012686472427142659, -0.059574615391924976, -0.11614332283904788, 0.06149861563351791], [-0.09914562613161826, 0.1146348415362348, 0.01930117801350159, 0.09600384981235877, 0.13212102958722707, 0.13066175848464986, 0.02427976389058481, 0.09436319714679153, 0.013842407700519227, 0.03672583750080291, -0.022548978909348497, 0.014258548523062131, 0.0037932272716733884, -0.06918041488070661, -0.05065002573510127], [-0.07722422301042806, 0.10679373825847385, 0.1329750861912595, -0.08909985669812459, -0.08404404640820907, 0.04909508422067674, 0.06782585480243317, 0.03849837368147854, 0.01785131666781392, 0.13227213019882647, -0.010565156990151842, -0.03198243249575369, 0.03791844656373333, -0.01313024900524043, -0.12461761417548536], [0.07962111578080147, 0.12632497053834954, 0.026336903848656418, -0.06484112401337887, -0.13381981223970602, -0.11352920648221548, 0.12215899566533597, 0.13660125492920713, -0.08921496715728297, 0.13162374650071115, -0.0581341094153779, -0.12347127356073205, -0.1255919808967167, 0.09891088634228279, 0.05277459944021656], [-0.008483282035357587, -0.10113384702286075, 0.06931299474510269, 0.054251234488605, -0.10135148491374577, 0.004799442251778363, 0.023658513438866102, 0.05353075170386351, -0.06043533748691156, -0.0017996490240374807, 0.02534449112613016, -0.039274677121015164, 0.05330323727797706, -0.02907938476336297, -0.05657944373691054], [-0.06394687537346443, 0.08117125112378878, 0.08106694346104731, -0.0542887970839047, -0.038414421323270526, 0.04501082940578216, 0.03361473845872562, -0.03911891910881382, 0.12229145684128565, 0.1092184033232752, 0.06099728386794295, 0.09155057844407882, 0.12071105574491378, -0.05361307026295077, 0.1006440698309245], [0.1184328759604302, 0.019248470546325114, -0.11027702323572043, 0.1036842023497522, 0.03025954146510859, -0.014398662391682873, 0.10831614816344676, -0.029834700850518453, 0.12457312677498197, -0.09455342933289965, -0.045635831844114516, -0.1240280107649673, 0.07143748914200604, 0.12926776483505245, -0.04528829170652929], [0.025472272340510416, -0.09931563416957878, 0.04653364811426619, -0.037330066447564814, 0.020101762483553748, -0.06498678171549854, -0.017553983449080685, 0.1113031197440266, -0.07240918799360055, 0.09883649543560896, 0.05278357882465201, 0.02017337768633895, 0.07796758330880307, -0.03896436269831163, 0.04247956697172614], [-0.05849700765422576, 0.04227285360068406, -0.04272670042615774, 0.028368991988576536, 0.027461501297593643, 0.03459087211740974, 0.12437873338687014, 0.11452487457213248, 0.10119465350215129, -0.06728720062752269, -0.020049244181328668, -0.12496660170500463, 0.11080727203884372, -0.015681404037506688, 0.13557427155594928], [-0.07776345459512385, -0.01286346006569146, -0.0037276021109570456, -0.11967524073105627, 0.02238306026038203, 0.026505200209805124, 0.1218495191341484, 0.0487455788171014, 0.027976489128600623, 0.08212042610479592, 0.11379330959898462, 0.12818643255161774, -0.04093198541417388, 0.10346478701583892, -0.0033313942621179538], [-0.07611055476802003, -0.09914519007062259, -0.01592996519594389, 0.028444294569140743, -0.09034711625799749, -0.0571582011542643, 0.11373526627640726, -0.13022688795731518, 0.014085254008002257, -0.11969098666771519, 0.08247729835193265, -0.05449346116314477, 0.018638371126230208, 0.0552605218954684, 0.09335943110571623], [0.12694134081573513, -0.10669177792728328, -0.11078283177631994, 0.043209963815269564, -0.0024911181169537666, -0.10406327892929618, -0.017480205452503533, 0.1061421106527276, -0.030483897445165734, 0.024423176963734722, -0.07791528820167273, 0.053675745017041476, -0.039679224043220454, 0.08162175517974776, 0.014928245775130938], [-0.005761119934845099, -0.034329168452734884, 0.04017395965954332, 0.10098730838412609, -0.12098622637709222, -0.0923688998226258, 0.00700529197262198, 0.06952557569382578, -0.12391105885187005, 0.039350911304937924, -0.007273581618816416, -0.10804970128196068, -0.1354389135730521, 0.08838594806866046, 0.016612742378949413], [-0.07134381762557257, 0.10409565111324573, -0.019613307738681474, -0.03539646348989986, 0.022006346193529647, -0.12596889372192147, -0.060288953436505324, 0.08897649383534842, 0.11458009457023835, 0.06233620344086063, 0.09389087892601441, -0.11601660458420492, 0.037881489162919335, -0.02038983936609677, 0.00047355630056436504], [0.012764598302937719, -0.06174057295272613, 0.014424789011210193, -0.13339343101138823, -0.023897970570988483, -0.057134695067526706, -0.03264906475384899, -0.08583330932988391, 0.10383900776339669, 0.06047977957879744, 0.06302152115436757, 0.11524769346478422, 0.029732991655286978, -0.09061082563927814, -0.05037182917148551], [0.10663509035526728, 0.11907841265683664, -0.02242564381293631, 0.009528093674799287, -0.10783689010069833, -0.12712702065224013, 0.004881358770267241, 0.07558247861054171, 0.11623735807700372, -0.05361666082826767, -0.1198128019871467, -0.01218657118689323, 0.11479442614447247, 0.027250848935729016, 0.09876630192908856], [-0.00054530486897017, -0.11564609213886934, 0.014585149789567209, 0.04913645358404406, 0.09573523663335987, -0.09335203389682914, 0.00643656588125735, 0.08407478900063756, 0.09290222201246479, 0.056176445448355566, -0.06856962026136001, -0.08938248667398827, -0.09447827453316199, 0.12320805180611724, -0.12168236465325466], [0.04659565155961892, -0.1324900379373101, 0.03473898970700931, -0.11179473635777028, -0.1151985070424978, -0.002349920539158612, -0.024475480842611322, 0.06014100200145564, -0.09754816471857707, 0.04457903214706743, 0.10046148507194994, -0.07555178063927255, -0.022594901752269553, 0.057520198122769345, -0.13393630687947994], [-0.11298542273836706, -0.05388175201469847, -0.07611524668772429, 0.07570044116772828, -0.0051352539857668356, -0.07159296266793404, 0.12489648176289378, 0.0813828681207209, -0.08863606404223472, 0.10939841231363265, 0.03473321425638676, -0.07055195764293629, 0.06170466222664406, -0.04260596918278031, 0.06396619336549653], [0.058366845527575734, 0.09913880957489238, 0.015164981172996084, -0.03860040599211184, 0.047059846283788814, 0.038549024218981154, 0.08757779645955324, 0.08945777910704872, 0.05354210267831869, 0.13335147641538372, -0.08414419646890525, -0.12073246388239224, 0.1294647853299353, -0.10175626424469562, -0.1269047857853338], [0.09460026947419803, 0.03559626308452166, -0.031222838291939434, -0.08723660332671439, -0.0627256545712387, 0.007852390997863057, -0.08232844446762955, 0.1262466534685556, 0.1271620399520064, 0.1131226422398923, -0.051307695390590866, -0.0005832865045151125, -0.07093254392766275, -0.12029531932167693, -0.004872712206494212], [0.1220210848673742, -0.11439018735849771, -0.011095314936578643, 0.023787325852996477, 0.13332859460511767, -0.027517402983238126, 0.06643431638910136, 0.11717968524105907, 0.1310030866982275, -0.11237619970102526, -0.046004663841440044, 0.08364936402665235, -0.12143149468342312, -0.04271017959952575, 0.06981784583170433], [0.021851826522271633, 0.003098974221273143, -0.09738314705400816, 0.05711224553341032, 0.12014058107524603, 0.004768764199682113, 0.1156563945914412, -0.09230956401466782, -0.09827681212775877, 0.13216418984263525, -0.12695565016711632, -0.1269829259102817, 0.012102905750814213, -0.046448327648587806, 0.01938534911615694], [-0.0884244899300703, -0.07255906185067956, -0.023789061998015892, 0.04891091064747022, -0.08066106343916685, -0.07535256880695126, 0.05223086859894502, -0.00572871661897853, 0.04325064878411475, 0.11968548885099042, -0.1190045785333895, 0.02121561596402241, 0.05580197283338048, -0.06784627521913333, 0.013246445148458547], [0.10211315917116753, 0.13514309357018042, 0.016667095265355786, 0.12645263376251434, -0.09979300088784415, -0.12337075004013986, -0.04386540499419275, 0.09071316357583695, 0.11659075171043984, 0.04749693824768361, -0.0499907942783748, -0.012244152810932746, 0.11519671648959665, 0.11022641798573077, 0.057511420283728965], [-0.06608125241866478, -0.029390243836642266, 0.08530473805395192, -0.06534836099589586, -0.06561378997981174, 0.044489273205453955, -0.06054229369524078, -0.12482702206512311, 0.015689481065004257, -0.13242362981257774, -0.060951314920138194, 0.016964887956608804, -0.08174052055128475, 0.021456316462657776, -0.07405189173707341], [-0.02253690257998095, -0.11300570452780073, 0.07811996041081709, -0.07123617993532969, 0.0466498292745644, -0.04785901568579036, -0.10572156582479099, -0.10139269715874312, 0.11967365344885436, 0.1078475862962204, 0.07416422898509309, -0.1325468123754531, -0.10191001505776884, 0.1201729494952494, 0.09610463594138047], [0.00018777361504573875, -0.06859382200371432, 0.10220654177901811, -0.06883189738832224, 0.006491165849019598, -0.13337745526232914, -0.0523515687816027, 0.0630446796448732, 0.09574299808211875, -0.11224636362376966, 0.003239869884010399, -0.0015884181995256264, 0.004096278570101974, 0.05194520474649214, 0.011263584607204002], [0.04777628808785114, -0.036484429913875696, 0.1036385534812794, -0.05890541895987263, 0.0857932831032242, 0.11911959979842232, 0.044308477713155464, 0.06284673275543312, -0.08500204168763026, -0.07194240788950312, -0.09603260449476284, -0.13475971465208342, -0.07734473755919463, -0.12856129046229625, 0.05041859201279589], [0.03368082880636972, -0.05044974563019096, -0.0166335041725119, -0.08704946807629575, 0.03217283541907778, -0.05426442776384342, -0.09338699762577256, 0.027441551171454692, -0.054306826753022855, -0.0093036702984442, -0.08348679022978815, 0.04299832480085691, 0.014417509280341023, 0.09722897637212788, -0.10784869821983373], [0.053511654456732144, -0.09844595406392362, 0.023377071472483385, 0.0015804367828175792, -0.11718263507317912, 0.08547598792704933, -0.031693280025155854, 0.04954888470585908, -0.058021223053043094, -0.02241521449111669, 0.07146161878564417, -0.11604364764395506, 0.1214854197677421, 0.09717666015151677, 0.044504166760050756], [0.07941529473332676, -0.026666416950877736, 0.01673701215677517, -0.11626878957478465, -0.07162376987035934, 0.1157906274362425, 0.04951078935263792, -0.05634075504501079, -0.10315842776577516, 0.11119822113171521, -0.07959370134564517, 0.06780437928135605, 0.10923764827145069, -0.11839664803556355, -0.12661637558683975], [-0.013240475262084231, 0.10203395336552518, 0.02235839976640569, -0.02487864072883786, 0.04370439430259243, -0.12351762302824934, -0.07147811674070567, -0.029417657944708547, 0.13678222085641625, -0.0764013086913153, -0.06584279559114803, 0.11630167142834982, -0.09678552418142877, -0.028042684329035297, 0.022478065757857157], [-0.0233774919469507, -0.05120906447307451, 0.03318753452631451, 0.0202044201334472, 0.08922563869908184, 0.09922817466956285, -0.00947524245464193, -0.1015157880894105, -0.048386045051579896, -0.06255581282128807, 0.015817782934422903, -0.13017770322570896, -0.04598752763047495, 0.05273515356376943, 0.13387439934082782], [-0.053572962402023167, -0.07416233562481625, -0.09732929558062806, -0.1171618526212485, 0.02252900956935064, -0.015490756922874924, -0.10320872523965474, -0.10920581097452083, 0.07077833724206467, -0.09262878331444516, 0.08218493979021213, -0.11900250633642596, 0.03414005232214229, -0.038073145444544654, -0.07601475223764734], [0.04492354516677011, 0.049228061942188844, 0.11530341976715455, -0.029824235721866238, -0.028451817544832114, -0.10281479567131904, 0.10571434885927991, -0.022485286530686405, -0.06310538047719505, -0.13190662051628166, -0.05418404064262758, 0.04908511571783983, 0.058755360233230663, 0.02248077104101412, -0.06319460536242702], [0.04695508845090887, 0.08801813774085324, -0.07582046299521455, 0.04137296066957852, 0.09738559518289724, -0.07966248619018365, 0.05889694861614056, 0.00971631361684705, -0.03625740924255254, -0.020198772246464367, 0.020196762575158234, 0.085054686022005, -0.03439501482757755, 0.05765154422296204, -0.10204243098504265], [-0.044707336354009086, -0.0950289898111665, -0.007923959803423447, 0.07715666962942766, -0.03532649944372873, -0.05178179378070874, 0.04295965342427199, -0.004036232806750889, -0.05491992150835595, -0.03958596092263056, 0.06025976440196271, 0.024757008474218023, 0.10753802899178688, -0.09458832338342052, 0.05063485573355239], [0.049133818946626134, 0.046364927295572955, -0.10252533104066136, 0.07619073647984384, -0.08662193318626718, 0.032138617093892125, -0.008382590581258315, -0.1200184714951772, 0.04750302385167565, 0.09809540105380005, 0.104027731469687, 0.029902227578005647, 0.08074977406294964, -0.06864776316535035, 0.1300345376329947], [0.12731587358336346, -0.08777116913145802, 0.05098872834698001, 0.11760848462351328, 0.11145903735454835, 0.03611996612731236, 0.028744032672056774, -0.025263588060932263, -0.057249231876307025, 0.08518078115204772, -0.013537311531076082, 0.01618693545949801, 0.12150164019426282, -0.06965209179000512, -0.01779383758719759], [-0.014928727397139172, 0.0129760285529687, 0.04056352208623576, 0.03154272647540479, -0.12097291599428338, -0.0029993307099933364, 0.031144393607228704, -0.08608311012573314, -0.010815588726472564, -0.06242087583745, 0.06587628139908328, -0.06468260521401793, -0.08894313004769652, -0.009481080991627172, -0.05005265180315317], [-0.10335429367150195, -0.008255735801057179, 0.13653271266185127, 0.0886072401727871, 0.011220617996510474, 0.09249690876219738, -0.055286774223716126, 0.013842566099352749, -0.04210705762813523, 0.12235928818333794, -0.10156660377885493, -0.04684448808004914, 0.13168594435173356, 0.08513503321438426, -0.01637640861346476], [-0.004210554320467158, 0.036150586818094105, -0.13680751898742766, -0.012741931345007063, -0.05796564987027422, 0.0752076567995652, 0.025937932637621064, 0.04530066011958658, -0.1258196437189892, -0.05891619419061983, 0.024030038659870828, 0.06202224206648624, -0.04464688888940778, 0.13053185909084045, 0.12157751941826747], [0.09133128282494274, 0.027593553390030112, -0.11401603732502466, 0.1305071155453751, 0.09696958215264795, 0.01272960360732553, -0.05265628726471129, -0.11469978241417765, -0.08133554552504485, 0.11270667040302343, -0.042292835943343876, -0.034381064441197456, 0.05296364116579308, 0.12442379218725633, 0.0020573596696343843], [0.006027005894971099, 0.07415028110464147, -0.024793434263284245, -0.03286149614214823, -0.044673852702332775, 0.10586226918314096, -0.024526681545481627, -0.040047904198725656, -0.04325276182724347, 0.056892047531077794, -0.07599630708560531, -0.017650724125036044, 0.1130389997581395, 0.09448264296533465, -0.11735624495355286], [-0.062013375971081, 0.11747634869504689, -0.025956300268401927, -0.05848477991756457, 0.03404098751538473, 0.07160088813836094, -0.07152121282792019, -0.12354655953647214, 0.03640073680195033, -0.04286913134513025, -0.03331241331425193, 0.051362289106736264, 0.13711618179353316, -0.027743822853906655, -0.11916645768460135], [0.07799933398119971, -0.07783696619990153, 0.056592838412286545, 0.01608439577611248, 0.09436963344935717, 0.04236478701414789, -0.08421342436034258, -0.12485547088687525, -0.030604709283051854, 0.1096711869632882, -0.06344494119274507, 0.05979275433695444, -0.10698123815308862, -0.047374599701304546, -0.08187447666886428], [-0.009250332983167936, -0.05820401274029248, -0.13692566897526304, 0.12450400112726748, 0.04398714750171054, 0.009584279845211596, 0.01634813508028876, 0.04524694129264037, 0.010518629762406168, 0.01349417055690591, 0.06461607863792662, -0.0095551650919046, -0.010015373046135229, 0.09922492666808866, 0.1083127822583721], [0.05003401064264407, 0.11208924742830517, -0.1224487755867496, -0.028548635436254632, -0.1342927052183374, -0.10507823224987725, -0.05244351532483077, -0.136019280943183, 0.0025467402905906267, -0.09991950445872022, -0.062111743234715966, -0.09009784158801433, 0.04024815569309326, -0.11686993736295354, 0.046007849756529745], [-0.04378699209567996, -0.11360177828836529, -0.012668223567702072, -0.031809443751971436, -0.021888635136456308, 0.08231351197068074, 0.06911915214424136, 0.09750796284664429, -0.07696522199382655, 0.04875270435052914, 0.09931745342222378, -0.12102515048816012, 0.13553147961132975, 0.051300058016611194, 0.05289063801865171], [-0.03880133660732525, -0.13514844293420905, -0.05300024837157491, 0.01705819883082596, 0.012036296516451717, -0.019784885355481716, 0.04828499289254595, -0.1225194414487765, -0.03201368458892696, -0.1156775461696161, 0.10559806023985405, 0.0488526331807676, -0.031074443077732078, 0.026431576976831267, 0.10490390816178904], [0.10985515699778015, 0.04427816508577684, -0.04008440081192613, -0.025266640074073712, -0.018457647183087164, 0.1049364610068313, 0.10305923697095926, 0.10035547152885269, 0.06346565908594187, 0.069743736673508, 0.1088861278936443, -0.11854973954095406, 0.005493775222826486, 0.01637981913236561, 0.00433839967291727], [-2.9641057222473677e-05, -0.05734004763120906, 0.05976844093016043, 0.11431477136732401, 0.03131757289406639, -0.05179442051409737, 0.09959130236174854, 0.05299955583845595, -0.13196730994374187, -0.00046160337058298584, -0.1079619330920471, 0.04073002409559914, -0.013017276130659769, -0.05273418149659943, -0.029194996303269813], [-0.001392272452170884, -0.08343029416344175, -0.024939888859793147, -0.017440490442506312, -0.03803381752250372, 0.12373897364528127, 0.051209411900666996, 0.031008947573243822, 0.10290525804894399, 0.0502107375353662, -0.048533705227322324, -0.02640996654998469, -0.009562060023930868, 0.017857023889762097, 0.10555332942027307], [0.015963003756844868, -0.03862681077904437, -0.09295848786921501, -0.1026050241913468, 0.07305128988662132, -0.05216649816764282, 0.011572784078993814, 0.024605757640276893, 0.0854645389511639, -0.10678827824470533, 0.09781303590366972, 0.05605974944292527, -0.11907214376847754, 0.03333640524944867, 0.043098931771239385], [-0.11103999402467937, -0.09663763717979613, 0.1020169946372462, -0.10299396367241534, 0.10964455382078778, -0.07377899038871645, 0.10222256194267773, -0.04711178692885461, -0.0485766635477598, 0.11430278656530449, -0.029576795271437334, -0.07547694263328919, -0.12506327818771854, -0.08418019769818588, 0.017272837419444215], [0.04270483194146718, -0.054064231574868296, -0.1324427975277842, -0.05214177319356654, -0.05884954473542779, 0.03961698291271196, -0.13502274059779543, 0.08108298815422951, -0.06996699480135596, -0.11381150698741095, -0.12517802508695713, -0.08702902582204881, 0.12667182448467454, 0.032520610193371546, 0.12401669214747793], [-0.11392028502068799, 0.04362564213490902, -0.08859138091964897, -0.007200547400642188, -0.12525179646057838, -0.12830608742475583, 0.0010186172528650894, 0.12516147000175062, 0.10060383894332109, 0.10467977306468682, 0.10241600956941876, 0.06535114874654074, 0.11793146798533446, 0.056531065795640406, -0.1162772371671921], [0.12910336321534086, 0.13559601793035173, 0.09350845099649618, 0.08996078493675619, 0.13177692766825652, -0.11647240640774648, 0.013600783816227507, -0.08822725141665277, -0.09117632338180051, 0.07539729443386312, 0.07689666306572995, -0.0795428057062367, -0.12199203672695381, -0.08719340025482447, 0.12090938059073422], [0.02538336122675297, -0.07668675274405463, 0.007470120698514271, 0.11628512870494909, 0.10220230522409054, -0.07857287306721905, -0.044367268913804325, -0.013905316661893818, 0.05638880493099416, -0.05749227148581183, 0.049988457578069884, -0.09426487917246204, -0.10576261103872037, -0.1115214252899357, -0.014669769281576914], [0.07135096434303159, 0.035641320064678156, -0.04513245198848882, 0.13644992419295762, 0.01990636461099954, 0.07367309877165862, -0.05689120239119476, -0.089517399353124, 0.13597166802125185, 0.041709900950197776, 0.10845640716416335, -0.055527539450650115, -0.13556806600704502, -0.0005534464227402447, 0.08640694969842447], [-0.00839167377839889, -0.06351103286448702, -0.06653797628064134, -0.04818307757832431, -0.0014468071712372688, 0.1236260205792262, 0.06551797382844898, 0.09664080178470258, -0.041005729063918764, -0.12863536710603943, -0.06962891612944402, -0.05122978268271379, -0.019870828848454578, -0.02496429351552576, 0.028346963788286716], [0.057968762234556465, 0.10546753430046923, -0.03448671397014394, 0.07865694538630078, 0.04642266582782936, -0.0005953227023918206, -0.08040528700451603, 0.03283410891091165, -0.013624714410948244, 0.06118744878309926, -0.025902937143790827, -0.08898822603939124, -0.06464350278649718, -0.07529888386974304, -0.053398522829537165], [-0.1310165366347231, -0.09841526415864948, 0.041793973196049605, 0.12645839886431762, 0.0038068418170082996, 0.06847543849628618, -0.09336225772615317, -0.06867814522741902, 0.07109634267955964, 0.04362323570178189, -0.11426161911686111, 0.13191559817093565, 0.0922525327496658, -0.12667804529205146, -0.023621362576215846], [-0.10047116350271332, -0.11056650733757033, -0.0061419356225943245, -0.07416997898175624, 0.050596837302690656, 0.023760675146682175, 0.11623530524219514, -0.06718370745724825, -0.12586643328776959, 0.02549176342567988, 0.030121235508016653, -0.13633822824885589, 0.11397566915756066, -0.08205656017875411, 0.1069884702873441], [0.12500688812035907, -0.0747651143491472, 0.07705459503990367, 0.005702476241554205, 0.020322072688053916, -0.1290726828168954, -0.015617490630231767, -0.12518162451582932, -0.12782997386452977, -0.03009317101496896, -0.11336835233421337, -0.058920469455372104, -0.11842523195446195, 0.02411409894943009, 0.11748075935593214], [0.036679363117017805, -0.06301244370449997, -0.002118600962478151, -0.09490741459887175, 0.006816598873672808, -0.053712534647849905, -0.0839412770323516, 0.011367346855358479, -0.08896835016397893, 0.014399899321069831, 0.11356680339699018, 0.030317825845642132, 0.06717843100638496, -0.064793999076504, 0.05841260828876668], [0.027355879473789202, 0.09544832755330665, 0.08059432609395911, 0.1275025082849587, -0.00790393348095722, -0.10895722569430928, 0.0018876973142644693, 0.013504201183574954, 0.10261939668923398, -0.0551543876841141, 0.11507698929306123, 0.005749458609765584, -0.09428537346826937, -0.09879815161436226, -0.12345695246623307], [0.03605852477294269, -0.07754797213079331, -0.12690825154554364, 0.12189871181685094, 0.09696339385029132, 0.027780864170382613, -0.09958099777299283, -0.11480969893403767, -0.01830923188140672, 0.09411912747403473, -0.08776771839356245, 0.11641762779940354, 0.03286542841585832, 0.08753233772303826, 0.07212946351441338], [0.0739057246877233, 0.11740548911673351, -0.08647561692803679, -0.045347424013640975, -0.009975919939294059, 0.02207340838847119, -0.092347679022691, 0.04487462789180113, 0.12339970040295026, -0.07604122159964286, 0.0886754319585975, -0.059365616143620875, -0.07694365469784226, -0.07965683289170492, -0.090566027659611], [0.07850725207658599, 0.12749323544067168, -0.002503213402137161, 0.08280995487744766, -0.03496603858649877, -0.002654923005809662, 0.07627441521474082, -0.11300803407372319, -0.10681358115512425, 0.09999245121543979, -0.09104300055288816, 0.12870335828131976, -0.06117647915453356, 0.042819437978900116, 0.04657388604242854], [0.12552177820141766, 0.09306106274969528, 0.019979543795642984, 0.06321089869761468, -0.12707455435080986, 0.030236221890048237, -0.004588578399659399, 0.11242249742688701, -0.0650664761681418, 0.004298388372419193, -0.12045560864307223, 0.0039190162293843145, 0.07947686797263645, -0.03948958005515836, -0.12794913047491313], [0.025865632243352477, -0.13489851150447318, 0.02857517561408715, -0.08020559237735798, -0.0736635397151863, -0.09495371487518628, -0.04727654722720309, -0.0328164375760748, 0.130776430648849, 0.03889695675101976, 0.12773905008569378, 9.794245540725721e-05, 0.06298830229786803, 0.13315018820341004, -0.09280447843183626], [-0.10639034772338082, 0.0051668138953888665, 0.06218676536013909, 0.11327220687829789, -0.11336780020681897, -0.08894278509263734, -0.10161819113350157, -0.12511458859031732, 0.08767009569004788, -0.08136148589471487, -0.07400163573798643, -0.003357812267090532, 0.07973143724820214, 0.004594808927896099, -0.01945054149003035], [0.027647309547121218, -0.06641858813428235, 0.03830466804723434, -0.12290093718817077, -0.11728331579953313, 0.020663593805785446, 0.0553451932070638, 0.045119806837726345, 0.031156400803819873, 0.12686811937839668, -0.06548027688191707, 0.09492684658986617, -0.009802501642663247, -0.012872311027792058, -0.13148252933036345], [0.06392355118728343, -0.050981953364042584, 0.12048612735786149, -0.024157178147160174, -0.031141326705535502, -0.13146532382486498, -0.06262968154946981, -0.024097377824637917, -0.03494779971203321, -0.1291648184157765, 0.04644950300559708, -0.07815535078387491, -0.10954193809351147, 0.0700814148857822, 0.08942484629379976], [0.07568380695392649, 0.13015003375255432, 0.02957796260050538, 0.026419805295235466, -0.04871523755962984, -0.02359509278116917, 0.12318270471512885, 0.0002587741081490902, -0.07767566568932435, 0.1323394904995495, 0.009836541593302633, 0.10704039844121072, -0.004440197614444946, 0.03626789930018681, 0.07415022589679698], [0.11494308566241199, 0.13296241301707987, -0.12009523807531783, 0.0862824595331268, -0.04029018606693237, -0.04964086435203849, -0.050726166053264285, 0.10974798081639095, 0.10284451187039712, -9.782388513326912e-05, 0.09398495054463449, 0.07122178108481292, -0.11240543309518855, -0.09604373610284114, 0.02907718360454631], [0.026318353123316512, -0.03149727571849813, -0.05143153148172802, 0.0009405481490729617, 0.1183711335361273, -0.12379906418925266, -0.006023394286987838, 0.09800298431200744, 0.057252252210795884, 0.10613427998355987, 0.042209794538945355, -0.1120661426278432, 0.09938784001222323, -0.11473039298521517, 0.08693808957897387], [0.016715100873294086, 0.13107892434687088, 0.07995769960322133, 0.12273134784688425, 0.030268934032255085, 0.06586027514862464, 0.10777501646194951, 0.054769359346759305, -0.00023314541145291745, 0.13543040615273574, -0.09785532579000197, 0.0009549034065315376, -0.11840246550805757, 0.04576382336361423, 0.06291154273547811], [0.11688806177612834, -0.12150358088483526, -0.027715261566467378, 0.011840682126351088, 0.10999553394963063, -0.06341261020982815, -0.04815156164605544, 0.11295949099082794, 0.10726536557780836, -0.08761989699733111, -0.12668779237145467, -0.042662927687835986, -0.04144623513069311, 0.09494050215132405, -0.12825321878506998], [-0.005188501349494973, -0.02189999484083141, -0.09928279443297017, -0.04738111399143151, 0.09568100561959733, -0.026296437339939888, -0.10597434925518634, -0.0270998627600392, -0.06006188408994746, -0.013234583767613245, 0.03203380612536921, 0.0109376874168291, -0.10653643081413397, 0.0046012527398764935, -0.08961513903263701], [0.03625747934050691, 0.1274607031601451, 0.07774350972098412, 0.10954413659558634, 0.10408100007544857, -0.03733512010442143, 0.006423733575771584, 0.04001458122396612, -0.09690820377238547, 0.1017173295312025, -0.055241956097340325, -0.06337949690767966, -0.0026188892507894856, 0.0347736261289569, -0.05648160619442638], [-0.1300210680987297, 0.043544986107718536, -0.12718688700358383, -0.12192739110643547, -0.0859427523940039, 0.11773566872352817, -0.03725953148493463, -0.05159021145731746, -0.03800073005638836, -0.015932189520585296, -0.12183572476977725, -0.11998052681079008, 0.014329837335850248, -0.05314782685371747, -0.1340766113358257], [0.07328312090337138, -0.11283530593844274, 0.04998686494421184, 0.07433784606560995, 0.00865180112622077, -0.09218507618810662, -0.0834271860919091, -0.12041925227271545, -0.08118462572148347, 0.043798420496691, -0.12987334951995907, -0.025362471393389513, 0.09494378666883194, 0.0695151330617671, 0.08361212418407038], [0.12944687104956007, 0.023434886052934506, -0.0193302018464971, 0.09145290889693072, -0.11375131337419844, -0.04593020432483415, 0.1368837996289937, -0.11536204961201632, 0.0255448931665328, 0.12083617838003849, -0.027698088061902826, 0.0818502224640563, 0.09213206558481304, -0.04784124398464451, -0.003160798397400577], [-0.002616007166835632, 0.00737092741568085, -0.004537022884181924, -0.00904293026821218, -0.03802294631589184, -0.010855308419156717, 0.04068107213586747, 0.03676330080144799, 0.047633382349710346, 0.12148025377724028, 0.025437640448417898, 0.031555450314629085, -0.06903374474077546, 0.13603337123710316, 0.12296971180782765], [-0.05028238400730606, -0.05026091024462884, 0.07759447939716416, -0.03047891136726273, 0.09669427466920266, 0.0998127950263463, 0.013027450319235717, -0.08697673406738099, 0.0036186857320528454, 0.021628774322093952, -0.09096485666920104, -0.08043862252582362, -0.04054006925747383, -0.09932841232989899, -0.06426463224950445], [-0.0944785846625563, -0.0016429633441428781, -0.011283181313475527, -0.12504472426950367, -0.12164226649568845, 0.013769875731457937, -0.06015479286651433, 0.10778559832486262, 0.0922530912278057, -0.10701636427894534, 0.0649600985538453, -0.08338761379637015, -0.04418606967334955, 0.02981416732637679, -0.022055660756186327], [0.13635504825856934, -0.05491686132680758, -0.10441712766803801, -0.1114522880446316, 0.09836451639645061, 0.06455333987646336, -0.007136481517147325, 0.016092552582029684, 0.12747797411135606, 0.10846669816113313, 0.07194265925540391, 0.03381005258078115, 0.032615704608489116, -0.06428445862421231, 0.00655527417125451], [-0.1313064986010257, -0.10571012018281875, -0.11330498950828043, -0.11040681538710695, 0.09120704964299789, -0.061097584470567276, -0.06516271354279274, 0.09966759033599079, 0.13239773651902234, 0.043005843178084036, -0.04400159630744106, 0.11596992454402308, -0.1019542807196574, -0.03021436253136349, 0.02337297002282354], [0.021195108090968723, -0.05508773089184486, -0.03401979284872167, -0.08698609570336265, -0.07749530889098588, -0.023985932442289595, -0.0684471296773194, 0.062174697044590777, 0.020201513479164795, 0.11481774990888136, -0.004036313739416181, -0.032822122535891174, 0.06390213764972996, -0.07003826003675288, 0.03637207723770952], [0.0971550930935354, -0.0790999017069762, 0.07908443468966278, -0.12983121419720273, 0.08666488853135387, 0.08304918171444411, 0.07921587903740068, -0.07593175466538195, -0.029519441894345938, 0.09425309692845327, 0.006463980198934849, -0.014310033033154507, -0.083836433757974, 0.04480492353950036, -0.11298673812223732], [0.1311696061263287, -0.0575998359537377, 0.08925771576910124, -0.07519039947163236, -0.018538426705306824, 0.11078942150158425, -0.06292855209665849, 0.0884468561924851, -0.033183923783312155, -0.10850348797187284, -0.023157297134245622, 0.06821485815531872, 0.11861358636856986, -0.0728952857727014, -0.01653482122560028], [-0.11031592425882962, 0.10839123882792617, -0.08280622454108327, -0.08217449570667887, 0.08871170670023307, -0.11587529640463379, 0.12441111317450135, -0.0668846167182137, 0.07950496755071074, 0.02520530793236589, 0.11193653264732029, -0.07407367569296971, -0.11082416430399311, -0.11682246817299524, -0.10053507105444986], [-0.031606250380200554, -0.09582215475779371, -0.007363084545923909, 0.11050518135283818, -0.0045047437140571245, -0.11432151761860317, 0.06677612361295668, 0.017818230132699425, -0.11981599943054183, 0.010466061151863437, -0.0271673739693018, 0.1282505552891441, -0.04318210898591329, 0.0010592777390364128, -0.08029453460457599], [-0.10327228248864444, -0.01678783864936287, -0.07865902529906424, -0.09833570874778622, -0.025837344866897954, 0.09517942447869854, 0.1370668661052091, 0.06799919120630721, 0.07104483212477139, -0.11835289202112936, 0.024630259408699035, -0.0018899146622305962, 0.1263274500084022, -0.07078604156889727, -0.03817977215944704], [0.12674740191854492, -0.13348330824931942, -0.12016694721972748, 0.011889687645644909, 0.11223181881470498, 0.0593229371855942, 0.11305829818870197, -0.005349031228007256, -0.10043476014969274, -0.13073488345180476, -0.044155577018966566, 0.12668758231994956, -0.01903980289411837, -0.12098358363919606, 0.03282549534183657], [-0.10952143455541227, -0.057740661633121665, -0.09989068912301732, -0.11335746665327848, 0.11039544207030863, 0.011394138733305526, -0.10588904398124432, -0.13001854872889035, 0.12753125495367726, 0.007727981701988351, -0.12793659738336297, -0.021927343761234327, 0.13169597847656248, -0.03253169355522646, -0.02820616666014024], [0.07833557502710514, -0.0627300852096989, -0.045028878089714064, -0.11098766619040473, 0.11378399969528505, -0.10857073284202302, -0.11750981779385064, 0.039422924176587104, 0.021934373720905342, 0.1335502904689195, 0.07133706248175586, -0.06988630408879228, -0.06569012770144177, -0.010673808742027169, -0.10714942700432782], [0.0728104341227146, 0.002309946936730145, -0.048860668704556035, 0.021672283525320413, -0.06804685386836216, -0.08783311406714445, -0.03541812027321725, -0.12330599034666835, 0.12210478093241148, -0.06065178010238441, 0.010614232526995449, 0.05484861464747312, 0.04223693310905713, 0.02160815837905275, -0.10683603223351917], [0.12714258345598375, -0.07274237821201752, -0.09981646637336046, -0.07145558773525164, -0.03684567200425001, 0.07690908064515573, 0.06932526086908136, -0.0016533705487705164, -0.0639376475671351, 0.09712360508627765, -0.08393221924670416, -0.02653541911055346, 0.06125034218883202, 0.05831911707362253, 0.11025828506315757], [0.12265141704087015, -0.003962296540914512, -0.11092448403939278, -0.0066007679321876955, -0.06973690645901195, 0.12487532871709814, 0.006154387285902924, 0.0363871568707925, 0.08912492673023184, 0.06641194147784857, -0.09201580137503129, -0.08852991588653304, 0.05040904269430241, -0.008879555504719111, 0.03925605664942411], [0.01360221475876322, -0.08500022900259842, -0.06027483125911237, 0.1052555736777416, 0.02164589914953427, -0.1252694986825285, -0.068819250686675, 0.1142323592497638, -0.11730070079051878, -0.027430446536418157, -0.029345048436012308, -0.0015342472650961836, -0.06049503564026906, 0.006764519061138868, -0.02275427492563173], [-0.006711006076846299, 0.004480851946571496, -0.03197880982538115, -0.070516661642992, -0.1330917727949512, -0.019901362488930485, 0.0025566315132628803, 0.1283109986495857, -0.010936324997450841, -0.060503680213151056, 0.11062995370568457, -0.05779014809810375, 0.13135507265339605, -0.028226238089287578, -0.08597545977918578], [-0.04594676227984232, -0.08440415387677751, 0.0809737184831151, 0.06186085223588811, -0.07057565656022212, 0.002577385389430503, 0.01386465605860937, 0.02522447021998228, 0.015991476756911455, -0.0369138395765915, -0.06553122631807805, -0.06397158152697084, -0.018314078079480337, -0.12326629899023527, 0.05601009195511153], [0.059070704806470836, -0.07241920538507125, -0.029178262000388977, 0.08070427535482289, 0.10104503952220753, -0.053035584322083884, -0.030441770054734918, -0.019139698632678184, 0.11012329179620436, 0.07158395216432481, 0.12838125510917778, 0.028008432766581076, -0.05386876518663462, -0.05647734255721791, 0.10947037995947889], [0.1338047795151112, -0.10909368025389048, -0.07844894524877499, -0.09018203712755288, -0.06817124142421246, -0.0007784755068100113, -0.1106797947685041, -0.04142477936482106, -0.003913937662742534, 0.04903231444095188, 0.02346892569654263, -0.1143495530543868, 0.030797037914738395, -0.11054245920692962, 0.08319198138587264], [-0.0634362178353519, 0.028848256709925413, -0.1303657613536028, -0.00940374470738417, 0.07101114357788985, 0.050098858729377554, 0.11218279330610445, 0.13666395698018005, -0.011721778868398258, -0.10943652193682843, 0.08354066831103091, -0.06688126419371994, 0.0391666998893741, 0.07256172690149859, -0.0014954313960685306], [-0.004984421209483975, -0.004263099694498451, -0.06891066555883368, 0.06616754219819365, -0.04290560457772184, -0.024901534118299845, 0.07526432491416596, 0.010616736626284068, -0.11105765517857778, 0.047127024974008086, 0.054928261395230715, 0.1318038724621776, -0.11409951904269164, 0.12921725083347765, 0.09332340150993673], [0.002761192385970307, 0.09208910301205323, -0.03925875274097636, 0.09285725730070718, 0.0986627986871701, 0.12040526683587002, -0.1235651293751015, -0.023630270186305702, -0.04360920038130364, 0.06487642763394699, -0.05583878975858178, 0.007494859732861764, -0.009571337902276239, 0.055023127304583946, -0.026100343761153666], [-0.05126807960146254, 0.0531559750250703, -0.007463279316207633, -0.055434971422097454, 0.11534918209941195, -0.08069694519682143, -0.08647189063466795, 0.01101356324841421, 0.09729299151456364, -0.03816049156481424, 0.004531113196051373, 0.016283509904154808, 0.0018260675582972563, 0.03464281679935888, 0.10947631249928841], [-0.1123704136341454, 0.12751067652976475, 0.13040037400232077, -0.037034114065580506, -0.11069977306443891, 0.01109228823483302, 0.03529297176422985, -0.0020342888200654274, -0.09895949516050467, -0.034936453681407756, -0.10760240340420228, -0.08711049900790119, 0.006990682851082092, 0.09079248191737269, -0.05674818027335639], [-0.06040426237299276, 0.10855656182284823, 0.09795331239332924, 0.128045639354156, 0.03581924707872833, 0.10896071624579987, -0.03240421700392776, 0.004280418870880792, -0.031486624321996795, -0.09626247009541897, 0.07195098860086899, -0.07914995100029207, 0.11844605870359845, 0.08257519426676502, -0.1345250764506145], [-0.05714347979138129, -0.10261537982330628, -0.06339455889174986, -0.047929392687951655, 0.039867022777424266, 0.09402286696418571, -0.04598364693113115, -0.08814100677176848, -0.1007494448883978, 0.04606861221081801, -0.05147575867277815, -0.05044951656163141, -0.015175297789073117, 0.06665474602099472, -0.09177641001761441], [-0.05644763244816112, -0.0877689491152048, 0.0913726515666457, -0.10497583611216979, -0.024315545622135934, -0.09778718292627814, -0.0836370925023387, 0.039242922182778306, 0.08987075467392822, -0.08879519759095711, -0.005527428683473973, -0.07737488539420748, 0.005346377617690412, -0.09360563975877309, 0.0030724759146985026], [0.1324923289571792, 0.053803634503074294, -0.10457670086692296, 0.04953942179799764, 0.09992689431601956, -0.034560203196617706, -0.030820977367048544, 0.09082028919835583, -0.05210429720936814, -0.0034137181333639133, 0.0808907677580929, 0.013601922531860516, -0.10073738840985012, -0.024580999834111564, -0.08756853679207549], [-0.05901421853313496, -0.07314945199078293, 0.1007573097902725, -0.029936272482133514, -0.13184477070478123, -0.08432755954853108, -0.04132196492941305, 0.0037656495254517475, -0.050534610958077486, -0.03540906618373284, -0.02374182817052367, -0.0218960054995945, 0.0178424767750697, 0.059808066217307276, -0.0020476832703744674], [0.07426867686214894, 0.13559678619024215, 0.04813283627312365, -0.03701767086368424, -0.016819372543722372, 0.10125141061691711, -0.07421668552893358, 0.09758181566129068, 0.11450845683605634, -0.0539630453003051, -0.11315548506382575, -0.013119483935891768, -0.006555125307951382, 0.03424179358814683, 0.12470856029044838], [0.024270484185023894, -0.041217633781831964, -0.03921688633476203, 0.13668942334568393, 0.09299084749899753, 0.07827768973407095, 0.1165243543369254, -0.1127750824087613, 0.1356216955613622, 0.025297654707393202, -0.13161639695318042, -0.048330773742856464, -0.040380280739397034, -0.01592177940777266, 0.06961957725676685], [0.06652889237084625, 0.030384664234778785, -0.02308058321327089, -0.05706159302282528, 0.04198112653430172, 0.08854124968499402, -0.1342025324814578, 0.11450665048369149, 0.002559445526412074, 0.11612489246819926, 0.0184618297730956, 0.000994419133705765, 0.10310618282692807, 0.09144759187618931, -0.031847144434465166], [-0.06728930754031953, -0.06658005851240685, 0.047850426752398645, 0.021198996449450336, 0.10226695354262805, -0.07761598827866623, -0.10118956678530605, -0.08123777813748326, 0.09864318750316803, -0.03597106000064847, 0.04095938023713222, 0.025065151379106615, 0.10452918332587322, -0.12639059331031083, -0.06518486646594164], [0.05773672286143272, 0.03853686195067679, -0.03154243447304843, -0.04107217225501651, 0.01563392513273923, -0.05872336242030535, 0.07747399031826846, 0.03676566791669339, -0.12063808709920788, 0.06379400948419922, -0.037044938297295965, 0.08082034383067302, -0.05127206759002574, 0.008299097741585076, 0.10902972396135993]], "in": 303, "out": 15}, {"b": [-0.0008037326872846534, 0.0006178308306212265, -0.0002131890525295943, -0.0026135973862015417, -0.00012467102881492706, 0.0018848510044669699, -0.002613268917214455, 0.0012428967458563607, 0.00010569559405427819, -0.00039594953674949873], "name": "hidden1", "activation": "tanh", "bias": true, "W": [[-0.32146801572532513, 0.21998567844353906, -0.28157283644401615, -0.27751526145734673, 0.34928060605507055, 0.32179624445915156, -0.04209536571469802, -0.08787839831818339, 0.06373356387414851, 0.36140407747722364], 